{"learner":{"attributes":{"scikit_learn":"{\"_estimator_type\": \"classifier\"}"},"feature_names":["Adj Close","Volume","MACD_12_26_9","MACDh_12_26_9","MACDs_12_26_9","RSI_14","BBL_5_2.0","BBM_5_2.0","BBU_5_2.0","BBB_5_2.0","BBP_5_2.0","OBV","SMA_20","EMA_50","STOCHk_14_3_3","STOCHd_14_3_3","ADX_14","DMP_14","DMN_14","AD","STDEV_30","BULLISH","BEARISH","TEMPERATURE_AVG","PRESSURE_AVG","MFI_14","Volume_5","Volume_20","Volume_90","delta_p5","delta_p20","delta_p90","delta_v5","delta_v20","delta_v90","PV_DELTA_R5","PV_DELTA_R20","PV_DELTA_R90","PV_DELTA_R20_PRIOR1","PV_DELTA_R20_PRIOR2","PV_DELTA_R20_PRIOR3","PV_DELTA_R20_PRIOR4","PV_DELTA_R20_PRIOR5","PRESSURE_FORECAST","TEMPERATURE_FORECAST"],"feature_types":["float","float","float","float","float","float","float","float","float","float","float","float","float","float","float","float","float","float","float","float","float","float","float","float","float","float","float","float","float","float","float","float","float","float","float","float","float","float","float","float","float","float","float","float","float"],"gradient_booster":{"model":{"gbtree_model_param":{"num_parallel_tree":"1","num_trees":"100"},"iteration_indptr":[0,1,2,3,4,5,6,7,8,9,10,11,12,13,14,15,16,17,18,19,20,21,22,23,24,25,26,27,28,29,30,31,32,33,34,35,36,37,38,39,40,41,42,43,44,45,46,47,48,49,50,51,52,53,54,55,56,57,58,59,60,61,62,63,64,65,66,67,68,69,70,71,72,73,74,75,76,77,78,79,80,81,82,83,84,85,86,87,88,89,90,91,92,93,94,95,96,97,98,99,100],"tree_info":[0,0,0,0,0,0,0,0,0,0,0,0,0,0,0,0,0,0,0,0,0,0,0,0,0,0,0,0,0,0,0,0,0,0,0,0,0,0,0,0,0,0,0,0,0,0,0,0,0,0,0,0,0,0,0,0,0,0,0,0,0,0,0,0,0,0,0,0,0,0,0,0,0,0,0,0,0,0,0,0,0,0,0,0,0,0,0,0,0,0,0,0,0,0,0,0,0,0,0,0],"trees":[{"base_weights":[-0E0,-4.8653504E-1,3.7602967E-1,-7.407066E-1,-1.1960403E-1,7.725231E-1,2.5905233E-3,-2.4070284E-1,-1.0527425E0,1.9509843E-2,-5.558309E-1,1.0949991E0,1.3357443E-1,3.0195835E-1,-3.0764955E-1,-4.8406896E-1,3.207183E-1,-0E0,-1.0932322E0,1.7342418E-1,-8.459897E-1,-8.1024206E-1,-0E0,1.1514919E0,-6.9627814E-2,3.4611917E-1,-5.614232E-1,6.250908E-1,-0E0,-5.4191583E-1,4.19834E-1,-6.2444377E-1,-0E0,7.7383524E-1,-0E0,-1.1862036E0,-3.005778E-1,4.2145088E-1,-2.4218376E-1,-0E0,-1.1417124E0,-9.957978E-1,-0E0,-5.007835E-1,6.335094E-1,3.1732285E-1,1.2593056E0,-0E0,-2.3691921E-1,-0E0,6.493367E-1,-1.2769186E0,6.828996E-1,8.6966383E-1,-3.603031E-3,-2.5130475E-1,3.6776766E-1,-0E0,-7.3701346E-1,-0E0,9.9795896E-1,-0E0,-8.076417E-1,4.5083356E-1,-1.3795078E-1,1.0817697E0,-0E0,-5.542031E-1,-0E0,-1.2392133E0,-0E0,-0E0,-6.296331E-1,6.755503E-1,-0E0,-0E0,-6.2734634E-1,-0E0,-6.6560197E-1,-1.0742671E0,-0E0,3.261724E-1,-0E0,-4.0520138E-1,-0E0,9.579181E-1,-0E0,-3.7833106E-2,1.139384E0,1.705995E0,9.528527E-1,4.9621588E-1,-2.2042023E-1,-0E0,1.0822663E0,-6.605606E-1,-0E0,4.501397E-1,-0E0,9.736223E-1,-0E0,-3.670193E-1,1.4196292E-1,7.243289E-1,-5.8960944E-1,-0E0,7.6123065E-1,5.0787205E-1,-2.9539374E-1,-1.0798599E0,-0E0,3.4597945E-1,-7.428636E-1,-0E0,1.3050551E0,1.18347384E-1,-2.2514887E-2,-2.1567024E-2,-1.000836E0,-0E0,9.28673E-1,-4.8229071E-1,-0E0,1.2416579E0,-0E0,-0E0,-3.4031394E-1,-0E0,4.2001155E-1,-1.27665E0,-0E0,-0E0,-9.037529E-2,-0E0,3.302445E-1,-9.6852076E-1,-0E0,8.053495E-1,-0E0,3.713006E-1,-2.520962E-1,-9.1571145E-2,4.943488E-1,-0E0,-1.1544858E0,-0E0,-1.1694753E0,3.506345E-1,-0E0,1.2074733E0,-0E0,-0E0,-7.268253E-1,1.2717221E0,-0E0,1.7616576E0,-0E0,-0E0,1.0018195E0,9.5565325E-1,-0E0,-5.0674653E-1,2.3984075E-1,-1.4601378E-1,4.2247257E-1,-0E0,1.2350103E0,-0E0,1.0601889E0,-0E0,-8.6920696E-1,-0E0,2.2438887E-1,-0E0,1.0205331E0,-9.241344E-1,-0E0,8.2984336E-2,-6.7533666E-1,-0E0,1.0092107E0,1.0178293E0,-0E0,-0E0,-6.685039E-1,-1.1668978E0,-0E0,3.7664068E-1,-3.211871E-1,6.9821024E-1,-0E0,-4.280484E-1,-0E0,1.4283637E0,-0E0,3.025107E-1,-0E0,-2.4425068E-1,-0E0,-0E0,-2.3334332E-1,-5.9618634E-1,-0E0,-0E0,6.2038857E-1,-0E0,-3.0604467E-1,7.087445E-1,-0E0,-0E0,3.564263E-1,-6.311953E-1,-0E0,-9.766929E-2,-0E0,2.9158762E-1,-0E0,-0E0,-5.499714E-1,1.257826E-2,-0E0,4.6799856E-1,-0E0,-4.4079382E-2,-0E0,-0E0,2.996166E-1,-3.6402166E-1,-0E0,-2.1521391E-1,-0E0,-0E0,3.6582989E-1,-7.836716E-2,1.8217054E-1,-0E0,-6.4342076E-1,-0E0,-5.8674E-1,6.841288E-1,-0E0,-0E0,3.8610396E-1,-0E0,-4.1309887E-1,6.8095535E-1,-0E0,8.805161E-1,-0E0,5.127252E-1,-0E0,5.482207E-1,-0E0,-3.9253584E-1,-0E0,-0E0,2.9158762E-1,-0E0,-2.2542354E-1,-0E0,3.6323252E-1,6.5673286E-1,-0E0,5.5532664E-1,-0E0,1.6707662E-2,-0E0,-0E0,-4.7381324E-1,-0E0,6.153191E-1,-5.4269713E-1,-0E0,-3.3960067E-2,1.3950804E-1,3.829165E-1,-0E0,-3.9700037E-1,-0E0,1.92332E-2,-2.4724845E-2,5.794322E-1,-0E0,6.5982175E-1,-0E0,-0E0,2.048552E-1,-4.778307E-1,-0E0,-0E0,-6.1153024E-1,-0E0,3.160662E-1,-3.772226E-1,-0E0,-0E0,4.5084354E-1,7.319287E-1,-0E0],"categories":[],"categories_nodes":[],"categories_segments":[],"categories_sizes":[],"default_left":[0,0,0,0,0,0,0,0,0,0,0,0,0,0,0,0,0,0,0,0,0,0,0,0,0,0,0,0,0,0,0,0,0,0,0,0,0,0,0,0,0,0,0,0,0,0,0,0,0,0,0,0,0,0,0,0,0,0,0,0,0,0,0,0,0,0,0,0,0,0,0,0,0,0,0,0,0,0,0,0,0,0,0,0,0,0,0,0,0,0,0,0,0,0,0,0,0,0,0,0,0,0,0,0,0,0,0,0,0,0,0,0,0,0,0,0,0,0,0,0,0,0,0,0,0,0,0,0,0,0,0,0,0,0,0,0,0,0,0,0,0,0,0,0,0,0,0,0,0,0,0,0,0,0,0,0,0,0,0,0,0,0,0,0,0,0,0,0,0,0,0,0,0,0,0,0,0,0,0,0,0,0,0,0,0,0,0,0,0,0,0,0,0,0,0,0,0,0,0,0,0,0,0,0,0,0,0,0,0,0,0,0,0,0,0,0,0,0,0,0,0,0,0,0,0,0,0,0,0,0,0,0,0,0,0,0,0,0,0,0,0,0,0,0,0,0,0,0,0,0,0,0,0,0,0,0,0,0,0,0,0,0,0,0,0,0,0,0,0,0,0,0,0,0,0,0,0,0,0,0,0,0,0,0,0,0,0,0,0,0,0,0,0,0,0,0,0,0,0],"id":0,"left_children":[1,3,5,7,9,11,13,15,17,19,21,23,25,27,29,31,33,-1,35,37,39,41,43,45,47,49,51,53,55,57,59,61,63,65,67,69,71,73,75,-1,77,79,81,83,85,87,89,-1,-1,91,93,95,97,99,101,103,105,107,109,111,113,115,117,119,121,123,-1,125,127,129,131,133,135,137,139,141,143,-1,-1,145,-1,147,-1,-1,-1,149,-1,151,153,155,157,159,161,163,165,-1,-1,-1,-1,167,-1,169,171,173,175,177,179,181,183,185,187,189,191,-1,193,195,197,199,201,-1,203,205,-1,207,-1,-1,-1,-1,209,211,-1,-1,213,-1,215,217,219,221,223,225,227,229,231,233,235,-1,237,-1,-1,239,-1,241,243,245,-1,247,-1,-1,249,251,-1,253,255,257,259,-1,261,-1,263,265,267,-1,-1,-1,269,271,273,275,277,279,281,283,-1,285,287,289,-1,291,293,295,-1,-1,-1,297,-1,-1,-1,-1,-1,-1,-1,-1,-1,-1,-1,-1,-1,-1,-1,-1,-1,-1,-1,-1,-1,-1,-1,-1,-1,-1,-1,-1,-1,-1,-1,-1,-1,-1,-1,-1,-1,-1,-1,-1,-1,-1,-1,-1,-1,-1,-1,-1,-1,-1,-1,-1,-1,-1,-1,-1,-1,-1,-1,-1,-1,-1,-1,-1,-1,-1,-1,-1,-1,-1,-1,-1,-1,-1,-1,-1,-1,-1,-1,-1,-1,-1,-1,-1,-1,-1,-1,-1,-1,-1,-1,-1,-1,-1,-1,-1,-1,-1,-1,-1,-1,-1,-1,-1,-1],"loss_changes":[4.5586627E2,9.338385E1,1.9837209E2,8.520221E1,3.3576035E1,1.24054474E2,6.786939E1,3.6648594E1,2.1321411E1,3.8105705E1,2.3130352E1,3.9142517E1,3.2462284E1,3.3003456E1,5.9803787E1,1.6654663E1,1.5808266E1,0E0,1.184436E1,3.2324585E1,1.7463152E1,1.952744E1,1.1871107E1,2.1527466E1,2.1175017E0,1.9154005E1,4.568297E1,3.5593567E1,2.0780432E1,2.6257492E1,1.9184212E1,1.8678646E1,4.018628E0,1.4109665E1,3.8030133E0,1.679837E1,1.0616866E1,1.6776028E1,1.4909082E1,0E0,1.4647186E1,9.07711E0,9.5600826E-1,5.2889237E0,7.311615E0,2.8401531E1,2.1388916E1,0E0,0E0,1.0426487E1,2.3706886E1,4.5472374E0,2.5387769E0,2.1298866E1,4.3171086E0,3.692154E1,1.9660488E1,1.0916031E1,5.5130325E1,1.1511995E1,1.0430634E1,1.7565574E-1,8.401573E0,7.18793E0,2.3921084E0,9.010654E0,0E0,1.6345892E0,2.013135E0,1.4075226E1,8.72636E-2,1.1387571E0,1.4391969E1,1.3560768E1,8.979401E0,5.8766274E0,2.1191372E1,0E0,0E0,5.7190323E0,0E0,2.935945E0,0E0,0E0,0E0,7.059578E0,0E0,7.646099E0,4.9092903E0,8.1579895E0,1.7686539E1,1.12097225E1,1.09438E1,3.8562677E0,1.5397148E1,0E0,0E0,0E0,0E0,1.6188225E1,0E0,1.1434697E1,1.3247834E0,9.013212E0,2.243716E1,6.5198298E0,1.0808514E1,1.2033865E1,1.1888242E1,1.9348465E1,7.3256407E0,7.6623077E0,2.2994328E0,0E0,4.4656944E0,2.360457E0,3.5794375E0,3.761545E0,1.1231674E1,0E0,7.182892E0,1.4002659E0,0E0,8.675297E0,0E0,0E0,0E0,0E0,3.3038502E0,9.457489E0,0E0,0E0,2.9252976E-1,0E0,2.1596308E0,8.359547E0,3.5564722E-3,1.2919342E1,8.72636E-2,7.803473E0,9.170937E0,2.9360628E0,6.048692E0,2.0670943E0,8.954605E0,0E0,3.9151306E0,0E0,0E0,4.0967236E0,0E0,6.087271E0,1.70997E0,4.273468E0,0E0,1.1773468E1,0E0,0E0,1.4672592E1,5.6055527E0,0E0,1.4169675E1,2.6698525E0,3.9463775E0,5.593007E0,0E0,1.1772667E1,0E0,1.4468185E1,8.267413E-3,2.7378206E0,0E0,0E0,0E0,5.1567497E0,1.8684319E1,1.5493367E0,8.020957E0,2.053279E0,3.1078037E-2,1.3200214E1,1.051972E1,0E0,2.013135E0,1.4259924E1,1.5613647E1,0E0,6.8985524E0,6.744274E0,6.623698E0,0E0,0E0,0E0,1.6046677E0,0E0,0E0,0E0,0E0,0E0,0E0,0E0,0E0,0E0,0E0,0E0,0E0,0E0,0E0,0E0,0E0,0E0,0E0,0E0,0E0,0E0,0E0,0E0,0E0,0E0,0E0,0E0,0E0,0E0,0E0,0E0,0E0,0E0,0E0,0E0,0E0,0E0,0E0,0E0,0E0,0E0,0E0,0E0,0E0,0E0,0E0,0E0,0E0,0E0,0E0,0E0,0E0,0E0,0E0,0E0,0E0,0E0,0E0,0E0,0E0,0E0,0E0,0E0,0E0,0E0,0E0,0E0,0E0,0E0,0E0,0E0,0E0,0E0,0E0,0E0,0E0,0E0,0E0,0E0,0E0,0E0,0E0,0E0,0E0,0E0,0E0,0E0,0E0,0E0,0E0,0E0,0E0,0E0,0E0,0E0,0E0,0E0,0E0,0E0,0E0,0E0,0E0,0E0,0E0,0E0],"parents":[2147483647,0,0,1,1,2,2,3,3,4,4,5,5,6,6,7,7,8,8,9,9,10,10,11,11,12,12,13,13,14,14,15,15,16,16,18,18,19,19,20,20,21,21,22,22,23,23,24,24,25,25,26,26,27,27,28,28,29,29,30,30,31,31,32,32,33,33,34,34,35,35,36,36,37,37,38,38,40,40,41,41,42,42,43,43,44,44,45,45,46,46,49,49,50,50,51,51,52,52,53,53,54,54,55,55,56,56,57,57,58,58,59,59,60,60,61,61,62,62,63,63,64,64,65,65,67,67,68,68,69,69,70,70,71,71,72,72,73,73,74,74,75,75,76,76,79,79,81,81,85,85,87,87,88,88,89,89,90,90,91,91,92,92,93,93,94,94,99,99,101,101,102,102,103,103,104,104,105,105,106,106,107,107,108,108,109,109,110,110,111,111,112,112,114,114,115,115,116,116,117,117,118,118,120,120,121,121,123,123,128,128,129,129,132,132,134,134,135,135,136,136,137,137,138,138,139,139,140,140,141,141,142,142,143,143,144,144,146,146,149,149,151,151,152,152,153,153,155,155,158,158,159,159,161,161,162,162,163,163,164,164,166,166,168,168,169,169,170,170,174,174,175,175,176,176,177,177,178,178,179,179,180,180,181,181,183,183,184,184,185,185,187,187,188,188,189,189,193,193],"right_children":[2,4,6,8,10,12,14,16,18,20,22,24,26,28,30,32,34,-1,36,38,40,42,44,46,48,50,52,54,56,58,60,62,64,66,68,70,72,74,76,-1,78,80,82,84,86,88,90,-1,-1,92,94,96,98,100,102,104,106,108,110,112,114,116,118,120,122,124,-1,126,128,130,132,134,136,138,140,142,144,-1,-1,146,-1,148,-1,-1,-1,150,-1,152,154,156,158,160,162,164,166,-1,-1,-1,-1,168,-1,170,172,174,176,178,180,182,184,186,188,190,192,-1,194,196,198,200,202,-1,204,206,-1,208,-1,-1,-1,-1,210,212,-1,-1,214,-1,216,218,220,222,224,226,228,230,232,234,236,-1,238,-1,-1,240,-1,242,244,246,-1,248,-1,-1,250,252,-1,254,256,258,260,-1,262,-1,264,266,268,-1,-1,-1,270,272,274,276,278,280,282,284,-1,286,288,290,-1,292,294,296,-1,-1,-1,298,-1,-1,-1,-1,-1,-1,-1,-1,-1,-1,-1,-1,-1,-1,-1,-1,-1,-1,-1,-1,-1,-1,-1,-1,-1,-1,-1,-1,-1,-1,-1,-1,-1,-1,-1,-1,-1,-1,-1,-1,-1,-1,-1,-1,-1,-1,-1,-1,-1,-1,-1,-1,-1,-1,-1,-1,-1,-1,-1,-1,-1,-1,-1,-1,-1,-1,-1,-1,-1,-1,-1,-1,-1,-1,-1,-1,-1,-1,-1,-1,-1,-1,-1,-1,-1,-1,-1,-1,-1,-1,-1,-1,-1,-1,-1,-1,-1,-1,-1,-1,-1,-1,-1,-1,-1],"split_conditions":[2.9334962E7,-2.5276046E-2,-3.1414276E-1,1.576653E-2,6.358E1,3.12977E-1,3.18841E-1,7.100485E-1,-1.3114257E0,1.3554577E0,7.86E1,1.111967E0,6.9356674E-1,-4.572111E-1,9.656E7,-1.8591902E-1,4.5142865E-1,-0E0,4.63918E-1,1.5130639E-1,-1.3918304E0,1.4177914E0,5.8369045E6,-1.6689649E0,1.3494937E0,-1.8012685E-1,1.2957116E8,3.859523E-2,3.0214064E-2,2.45098E-1,1.175326E0,-1.084374E0,-7.4093044E-2,4.481302E-1,1.1588283E0,3.024E1,-3.5798317E-1,4.5834935E-1,2.2623974E-1,-0E0,2.988E1,3.479173E-1,3.5571134E-1,1.15599E0,4.1802973E-1,2.48276E-1,-9.9384606E-1,-0E0,-2.3691921E-1,2.35294E-1,5.7183633E0,1.1147467E-1,1.4803822E0,9.304568E-1,1.056927E0,-1.313457E-1,1.1311628E1,-6.296146E-1,1.51774025E1,-4.9345344E-2,4.19277E-1,-2.0759648E-2,-2.6333587E-2,1.7172538E-2,-2.682588E-1,1.3479605E0,-0E0,-3.132665E-1,-5.0236225E-1,3.6408755E-1,1.4099625E-2,-6.3383573E-1,2.063534E7,9.6466905E-1,-1.3353511E-2,4.89E1,1.2153007E-2,-0E0,-6.6560197E-1,-7.423959E-2,-0E0,6.30156E6,-0E0,-4.0520138E-1,-0E0,5.907855E-1,-0E0,-1.9116827E0,2.4395125E0,1.606397E0,3.53E1,-1.7550234E-1,3.829E-1,-9.703229E-1,3.1303578E7,-6.605606E-1,-0E0,4.501397E-1,-0E0,2.988E1,-0E0,-1.4209388E0,-2.941862E-1,4.828375E0,7.908582E7,5.269042E-1,4.31855E7,3.002E1,-5.4243064E-1,1.7732272E0,3E1,2.4260454E-2,1.2896827E8,-0E0,2.4533355E0,-5.084798E-1,5.82E1,7.896013E0,4.70383E-1,-0E0,7.0708323E0,-1.7608705E0,-0E0,-1.4731452E-1,-0E0,-0E0,-3.4031394E-1,-0E0,1.0062429E-1,2.215181E0,-0E0,-0E0,1.3306032E0,-0E0,2.48731E-1,-1.2055768E0,8.136542E-1,5.914E1,3.2946E7,2.7302865E-2,-4.7198758E-1,1.2899035E-1,-1.668659E-1,3.22092E6,-7.3048925E-1,-0E0,-4.2760497E-1,3.506345E-1,-0E0,5.312728E-2,-0E0,-4.218239E-1,2.9778678E0,8.734426E7,-0E0,2.476324E0,-0E0,-0E0,2.164214E0,3.004E1,-0E0,-3.731405E-1,2.8502306E-2,-1.4826005E0,-1.2823917E0,-0E0,1.5695802E0,-0E0,1.0057464E8,5.6954616E-1,-9.0362275E-1,-0E0,2.2438887E-1,-0E0,-5.7045865E-1,1.7370931E0,6.216E1,-5.7123184E-1,1.176588E0,-8.4005475E-1,1.7330061E0,8.153737E-1,-0E0,2.6104195E-2,1.7493744E0,-1.1145722E0,-0E0,9.312598E-2,9.638667E-2,-1.3649662E0,-0E0,-4.280484E-1,-0E0,1.9758639E0,-0E0,3.025107E-1,-0E0,-2.4425068E-1,-0E0,-0E0,-2.3334332E-1,-5.9618634E-1,-0E0,-0E0,6.2038857E-1,-0E0,-3.0604467E-1,7.087445E-1,-0E0,-0E0,3.564263E-1,-6.311953E-1,-0E0,-9.766929E-2,-0E0,2.9158762E-1,-0E0,-0E0,-5.499714E-1,1.257826E-2,-0E0,4.6799856E-1,-0E0,-4.4079382E-2,-0E0,-0E0,2.996166E-1,-3.6402166E-1,-0E0,-2.1521391E-1,-0E0,-0E0,3.6582989E-1,-7.836716E-2,1.8217054E-1,-0E0,-6.4342076E-1,-0E0,-5.8674E-1,6.841288E-1,-0E0,-0E0,3.8610396E-1,-0E0,-4.1309887E-1,6.8095535E-1,-0E0,8.805161E-1,-0E0,5.127252E-1,-0E0,5.482207E-1,-0E0,-3.9253584E-1,-0E0,-0E0,2.9158762E-1,-0E0,-2.2542354E-1,-0E0,3.6323252E-1,6.5673286E-1,-0E0,5.5532664E-1,-0E0,1.6707662E-2,-0E0,-0E0,-4.7381324E-1,-0E0,6.153191E-1,-5.4269713E-1,-0E0,-3.3960067E-2,1.3950804E-1,3.829165E-1,-0E0,-3.9700037E-1,-0E0,1.92332E-2,-2.4724845E-2,5.794322E-1,-0E0,6.5982175E-1,-0E0,-0E0,2.048552E-1,-4.778307E-1,-0E0,-0E0,-6.1153024E-1,-0E0,3.160662E-1,-3.772226E-1,-0E0,-0E0,4.5084354E-1,7.319287E-1,-0E0],"split_indices":[28,34,0,6,44,21,21,3,17,13,44,31,4,4,26,7,17,0,21,17,15,8,28,11,17,33,28,41,36,22,2,11,8,9,3,43,17,33,1,0,43,40,15,2,19,21,12,0,0,22,20,37,2,25,8,42,20,33,20,17,21,37,40,40,34,3,0,4,32,36,31,34,26,29,35,23,40,0,0,40,0,26,0,0,0,0,0,11,9,29,23,32,22,19,28,0,0,0,0,43,0,31,10,20,28,8,26,43,16,5,24,31,27,0,16,18,23,20,22,0,20,14,0,13,0,0,0,0,2,40,0,0,0,0,22,9,19,44,27,41,30,1,33,28,9,0,33,0,0,40,0,25,20,27,0,33,0,0,18,43,0,6,40,19,7,0,3,0,27,12,9,0,0,0,42,13,44,9,7,10,12,14,0,37,4,4,0,11,9,10,0,0,0,2,0,0,0,0,0,0,0,0,0,0,0,0,0,0,0,0,0,0,0,0,0,0,0,0,0,0,0,0,0,0,0,0,0,0,0,0,0,0,0,0,0,0,0,0,0,0,0,0,0,0,0,0,0,0,0,0,0,0,0,0,0,0,0,0,0,0,0,0,0,0,0,0,0,0,0,0,0,0,0,0,0,0,0,0,0,0,0,0,0,0,0,0,0,0,0,0,0,0,0,0,0,0,0,0,0],"split_type":[0,0,0,0,0,0,0,0,0,0,0,0,0,0,0,0,0,0,0,0,0,0,0,0,0,0,0,0,0,0,0,0,0,0,0,0,0,0,0,0,0,0,0,0,0,0,0,0,0,0,0,0,0,0,0,0,0,0,0,0,0,0,0,0,0,0,0,0,0,0,0,0,0,0,0,0,0,0,0,0,0,0,0,0,0,0,0,0,0,0,0,0,0,0,0,0,0,0,0,0,0,0,0,0,0,0,0,0,0,0,0,0,0,0,0,0,0,0,0,0,0,0,0,0,0,0,0,0,0,0,0,0,0,0,0,0,0,0,0,0,0,0,0,0,0,0,0,0,0,0,0,0,0,0,0,0,0,0,0,0,0,0,0,0,0,0,0,0,0,0,0,0,0,0,0,0,0,0,0,0,0,0,0,0,0,0,0,0,0,0,0,0,0,0,0,0,0,0,0,0,0,0,0,0,0,0,0,0,0,0,0,0,0,0,0,0,0,0,0,0,0,0,0,0,0,0,0,0,0,0,0,0,0,0,0,0,0,0,0,0,0,0,0,0,0,0,0,0,0,0,0,0,0,0,0,0,0,0,0,0,0,0,0,0,0,0,0,0,0,0,0,0,0,0,0,0,0,0,0,0,0,0,0,0,0,0,0,0,0,0,0,0,0,0,0,0,0,0,0],"sum_hessian":[2.4848726E3,1.0934991E3,1.3913734E3,6.2946545E2,4.640337E2,6.614845E2,7.2988885E2,2.54697E2,3.7476846E2,3.349872E2,1.2904648E2,4.2886124E2,2.3262326E2,3.8786716E2,3.420217E2,1.9017377E2,6.452324E1,9.460175E0,3.653083E2,2.9472083E2,4.0266384E1,9.557202E1,3.3474464E1,4.1721796E2,1.1643291E1,1.8944606E2,4.3177208E1,1.744068E2,2.1346034E2,2.6925113E2,7.277058E1,1.566993E2,3.3474464E1,3.6870422E1,2.7652819E1,3.1533914E2,4.9969128E1,1.9963394E2,9.508688E1,5.0939403E0,3.5172443E1,8.271589E1,1.2856134E1,1.358384E1,1.9890623E1,5.8701595E1,3.5851636E2,3.1533914E0,8.489901E0,9.072065E1,9.872541E1,3.250419E1,1.06730175E1,1.3680867E2,3.759813E1,1.142498E2,9.921055E1,7.56814E1,1.9356973E2,4.123666E1,3.1533915E1,3.4687305E1,1.2201199E2,1.7464937E1,1.6009527E1,3.056364E1,6.306783E0,1.1643291E1,1.6009525E1,2.9981476E2,1.5524389E1,1.2370997E1,3.759813E1,1.1400723E2,8.562671E1,4.3662346E1,5.1424538E1,2.9108229E0,3.226162E1,7.8834785E1,3.8810973E0,8.247332E0,4.6088033E0,1.2128429E1,1.4554114E0,1.6252094E1,3.6385288E0,3.2989326E1,2.5712269E1,1.312296E2,2.2728676E2,2.9350798E1,6.136985E1,4.3419777E1,5.5305634E1,3.1291348E1,1.212843E0,8.4899E0,2.1831172E0,1.3147217E2,5.3365088E0,3.0078505E1,7.5196257E0,2.1588604E1,9.2661194E1,4.269207E1,5.651848E1,2.377172E1,5.1909676E1,1.3705125E2,5.651848E1,2.716768E1,1.4068977E1,7.277057E0,2.4256857E1,1.09155855E1,2.377172E1,3.4444736E1,8.756726E1,5.5790772E0,1.188586E1,1.0915586E1,5.0939403E0,2.886566E1,1.69798E0,1.212843E0,1.04304495E1,5.3365088E0,1.06730175E1,2.910823E2,8.732469E0,5.5790772E0,9.945312E0,2.6682544E0,9.702743E0,3.080621E1,6.79192E0,1.0090853E2,1.3098703E1,4.5602894E1,4.0023815E1,2.1103466E1,2.2558878E1,2.0860897E1,3.056364E1,8.247332E0,7.0587456E1,6.79192E0,1.4554114E0,1.4796683E1,1.4554114E0,1.9162918E1,1.3826409E1,2.3529152E1,2.1831172E0,1.2565052E2,5.5790772E0,4.123666E0,2.2316309E2,1.9648054E1,9.702744E0,5.118197E1,1.01878805E1,2.5712269E1,1.7707506E1,2.9108229E0,5.2394814E1,6.306783E0,1.2516538E2,1.01878805E1,1.9890623E1,1.212843E0,6.3067827E0,2.425686E0,1.9162918E1,6.3552967E1,2.9108229E1,2.9593367E1,1.3098703E1,1.4068977E1,4.24495E1,1.69798E1,6.79192E0,1.5766957E1,3.614272E1,1.3147217E2,5.5790772E0,3.3959602E1,2.2558878E1,2.1831171E1,5.3365088E0,1.2856134E1,1.212843E0,2.2316309E1,1.9405487E0,5.8216457E0,5.0939403E0,1.358384E1,1.01878805E1,1.867778E1,1.5766958E1,6.597865E1,2.1588604E1,1.4554114E0,1.0430449E1,1.212843E0,9.702744E0,2.4984564E1,3.8810973E0,1.4554114E0,9.217606E0,2.8889917E2,2.1831172E0,8.732469E0,1.212843E0,8.4899E0,1.212843E0,1.69798E0,2.910823E1,4.608803E0,2.1831172E0,8.4899E1,1.6009525E1,9.945312E0,3.1533914E0,8.732469E0,3.6870422E1,2.0375761E1,1.9648054E1,1.528182E1,5.8216457E0,2.425686E0,2.0133192E1,8.489901E0,1.2370997E1,2.1831172E0,2.8380524E1,1.212843E0,6.937461E1,1.2856134E1,1.9405487E0,1.01878805E1,8.975038E0,1.4554114E0,1.2370997E1,2.1588604E1,1.9405487E0,1.2322484E2,2.425686E0,2.1588603E2,7.277057E0,1.8435211E1,1.212843E0,4.1721794E1,9.460175E0,1.69798E0,8.4899E0,5.3365088E0,2.0375761E1,2.425686E0,1.528182E1,5.045426E1,1.9405487E0,1.1958631E2,5.5790772E0,6.3067827E0,3.8810973E0,1.212843E0,1.867778E1,3.6385286E0,1.5524388E1,5.8701595E1,4.8513713E0,1.1643291E1,1.7464937E1,1.2613565E1,1.6979801E1,1.188586E1,1.212843E0,8.004763E0,6.0642147E0,3.9781246E1,2.6682544E0,1.5039251E1,1.9405487E0,5.0939403E0,1.06730175E1,3.1291348E1,4.8513713E0,7.7621946E0,1.2370998E2,6.5493517E0,2.741025E1,1.4554115E1,8.004763E0,1.9405487E0,1.9890623E1,2.0860897E1,1.4554114E0],"tree_param":{"num_deleted":"0","num_feature":"45","num_nodes":"299","size_leaf_vector":"1"}},{"base_weights":[-2.2130784E-2,-3.0733085E-1,1.959927E-1,-6.982494E-1,-1.7111523E-1,-5.6316555E-2,4.808408E-1,-7.836463E-1,1.1700193E-1,-2.7071926E-1,2.615357E-1,9.31347E-2,-7.245498E-1,-0E0,5.685916E-1,-0E0,-8.261737E-1,4.631132E-1,-0E0,-5.1328677E-1,5.489493E-2,4.8760563E-1,-1.09072335E-1,2.0439826E-1,-5.787568E-1,-0E0,-8.516387E-1,5.0429153E-1,-3.839255E-1,-9.6591E-2,6.3457894E-1,-4.3154886E-1,-1.0682923E0,4.1330466E-1,-0E0,-3.3234287E-2,-8.181509E-1,-1.14054516E-1,6.314539E-1,6.809942E-1,-0E0,-0E0,-4.1570058E-1,2.9786727E-1,-2.8722036E-1,-8.011785E-1,-0E0,-4.0807545E-2,6.915217E-2,-9.629678E-1,-0E0,7.0193005E-1,-0E0,-0E0,-8.0378836E-1,2.9476155E-2,-8.5955966E-1,6.767862E-1,-0E0,-0E0,-5.55981E-1,-1.0880445E0,-0E0,-3.6019397E-1,3.424627E-1,-9.381583E-1,-0E0,4.2724803E-2,-8.649946E-1,-0E0,9.157359E-1,-0E0,1.0210278E0,-3.7455848E-1,2.0531863E-1,-5.954816E-1,-0E0,4.963919E-1,2.5808876E-3,-0E0,-6.2974083E-1,-0E0,-9.88005E-1,1.4141665E-1,-0E0,6.412876E-1,-0E0,-0E0,-1.1904669E0,8.4287953E-1,-0E0,2.3314275E-1,-0E0,-9.3848103E-1,-0E0,4.2998475E-1,-0E0,-0E0,-4.8781773E-1,7.383048E-1,-0E0,-0E0,-3.1205907E-1,-0E0,8.846176E-2,-0E0,-6.6334E-1,-1.1392058E0,-0E0,-7.7602905E-1,-0E0,5.50654E-1,-0E0,-9.709043E-1,-0E0,4.4868478E-1,-0E0,4.0659696E-1,-1.9045457E-1,-0E0,-1.0354756E0,-0E0,-3.9789733E-1,1.1290476E0,-0E0,-0E0,4.0514517E-1,-0E0,1.1961944E0,-3.2328773E-1,-0E0,1.6575699E-1,-0E0,-3.441147E-1,-0E0,6.474775E-1,-1.6476849E-1,-1.2648435E-1,2.9089624E-1,7.3076695E-2,-0E0,-0E0,-7.8419906E-1,-1.1839365E0,-0E0,1.8372834E-1,-0E0,-0E0,3.818964E-1,4.623707E-2,-5.16937E-1,-0E0,-1.2591541E0,-0E0,9.9017304E-1,-0E0,-1.0535837E0,2.7801722E-1,-0E0,-0E0,7.9479563E-1,1.52541585E-2,-2.6584974E-1,-0E0,-2.2950001E-1,-0E0,1.6628198E-1,-0E0,-4.2265528E-1,-5.7603717E-1,-0E0,-0E0,-4.739122E-1,2.3845288E-1,-5.8721896E-2,3.861286E-1,-0E0,-0E0,-3.482345E-2,-4.8206228E-1,-0E0,4.316079E-1,-0E0,-0E0,-2.7377758E-2,-0E0,3.2967377E-1,1.6166465E-1,-2.817294E-1,-5.8965963E-1,-0E0,-2.8919643E-1,-0E0,6.197236E-1,-0E0,-1.4411023E-1,-0E0,3.4114006E-1,-0E0,6.294859E-1,-0E0,-0E0,3.704045E-1,-0E0,-4.1856775E-1,2.7345287E-2,-4.6334818E-1,2.7663273E-1,-0E0,1.6179648E-1,-0E0,-0E0,-4.914229E-1,-0E0,-6.019832E-1,2.4661152E-1,-0E0,-3.2777748E-1,-0E0,-0E0,-6.293563E-1,5.253943E-1,-0E0,-5.484919E-1,-0E0,-2.4642535E-2,2.9163915E-1,-0E0,4.0413582E-1,-0E0,1.257329E-1,-2.9597017E-1,-0E0],"categories":[],"categories_nodes":[],"categories_segments":[],"categories_sizes":[],"default_left":[0,0,0,0,0,0,0,0,0,0,0,0,0,0,0,0,0,0,0,0,0,0,0,0,0,0,0,0,0,0,0,0,0,0,0,0,0,0,0,0,0,0,0,0,0,0,0,0,0,0,0,0,0,0,0,0,0,0,0,0,0,0,0,0,0,0,0,0,0,0,0,0,0,0,0,0,0,0,0,0,0,0,0,0,0,0,0,0,0,0,0,0,0,0,0,0,0,0,0,0,0,0,0,0,0,0,0,0,0,0,0,0,0,0,0,0,0,0,0,0,0,0,0,0,0,0,0,0,0,0,0,0,0,0,0,0,0,0,0,0,0,0,0,0,0,0,0,0,0,0,0,0,0,0,0,0,0,0,0,0,0,0,0,0,0,0,0,0,0,0,0,0,0,0,0,0,0,0,0,0,0,0,0,0,0,0,0,0,0,0,0,0,0,0,0,0,0,0,0,0,0,0,0,0,0,0,0,0,0,0,0,0,0,0,0,0,0,0,0,0,0,0,0,0,0,0,0,0,0,0,0,0,0],"id":1,"left_children":[1,3,5,7,9,11,13,15,17,19,21,23,25,27,29,-1,31,33,-1,35,37,39,41,43,45,47,49,51,53,55,57,59,61,-1,-1,63,65,67,69,71,73,-1,75,77,79,81,83,-1,85,87,-1,89,-1,91,93,95,97,99,101,103,105,107,-1,109,111,113,115,117,119,121,123,125,127,129,131,133,-1,135,137,139,141,-1,143,145,-1,147,-1,149,151,153,-1,-1,-1,155,-1,157,-1,-1,-1,159,161,-1,163,-1,165,-1,167,169,-1,171,173,175,177,179,-1,181,183,185,187,-1,189,-1,191,193,-1,195,197,-1,199,-1,-1,-1,-1,-1,-1,201,203,205,207,209,-1,-1,211,213,-1,-1,-1,-1,-1,215,217,-1,219,-1,221,-1,223,-1,-1,225,227,229,231,-1,-1,-1,-1,-1,-1,-1,-1,-1,-1,-1,-1,-1,-1,-1,-1,-1,-1,-1,-1,-1,-1,-1,-1,-1,-1,-1,-1,-1,-1,-1,-1,-1,-1,-1,-1,-1,-1,-1,-1,-1,-1,-1,-1,-1,-1,-1,-1,-1,-1,-1,-1,-1,-1,-1,-1,-1,-1,-1,-1,-1,-1,-1,-1,-1,-1,-1,-1,-1,-1],"loss_changes":[1.4715482E2,4.644905E1,9.844395E1,2.4056602E1,3.4151184E1,7.396863E1,2.7543121E1,1.0497498E1,2.1572738E0,5.678237E1,1.4654813E1,3.6834927E1,1.276178E1,1.8601246E1,2.9072998E1,0E0,6.4539185E0,4.164243E0,0E0,4.9458626E1,3.1050047E1,1.15831585E1,2.5059853E0,2.213431E1,1.2248316E1,1.2012825E-1,1.5123863E1,5.817253E0,1.714254E1,1.1742434E1,1.939206E1,9.810604E0,3.816452E0,0E0,0E0,2.0833656E1,2.9593918E1,3.0881756E1,2.0177443E1,8.714256E0,2.4360383E0,0E0,2.0774143E0,1.957722E1,9.520572E0,1.4385632E1,1.6815652E-1,0E0,4.0102363E0,1.5430824E1,0E0,5.827364E0,0E0,2.403522E0,6.256674E0,2.5576406E0,3.1115131E0,2.3017227E1,9.72723E-1,6.513641E-2,9.131596E0,4.720459E0,0E0,1.8357681E1,9.679936E0,7.3706207E0,2.5897105E0,1.4836881E1,1.1629295E1,1.7889019E0,1.5473591E1,3.0763361E0,9.886951E0,3.6479008E0,4.5430976E-1,1.4071345E0,0E0,2.7916203E1,8.722102E0,9.684226E-2,6.4356985E0,0E0,1.4373268E1,8.73644E-1,0E0,9.312358E-1,0E0,3.8345754E0,6.0134125E0,6.7173977E0,0E0,0E0,0E0,4.217926E0,0E0,1.3192174E0,0E0,0E0,0E0,1.5960907E1,1.1027459E0,0E0,9.8222876E-1,0E0,7.722257E-1,0E0,1.0817699E1,3.7816925E0,0E0,1.2095772E1,4.413087E0,1.3163425E1,3.551042E-2,3.291977E0,0E0,5.6599417E0,2.426764E-2,1.4860168E1,1.7634926E1,0E0,9.023998E0,0E0,1.83049E0,1.3005997E1,0E0,8.3962715E-1,4.407092E0,0E0,5.2222023E0,0E0,0E0,0E0,0E0,0E0,0E0,1.6431862E1,1.1126425E1,2.5130777E1,1.2007893E1,1.6332625E0,0E0,0E0,9.147972E0,3.6982498E0,0E0,0E0,0E0,0E0,0E0,2.6178155E0,2.1535153E0,0E0,4.1038513E0,0E0,3.2445164E0,0E0,3.5036163E0,0E0,0E0,3.080913E0,1.090802E1,1.2436494E0,3.5566907E0,0E0,0E0,0E0,0E0,0E0,0E0,0E0,0E0,0E0,0E0,0E0,0E0,0E0,0E0,0E0,0E0,0E0,0E0,0E0,0E0,0E0,0E0,0E0,0E0,0E0,0E0,0E0,0E0,0E0,0E0,0E0,0E0,0E0,0E0,0E0,0E0,0E0,0E0,0E0,0E0,0E0,0E0,0E0,0E0,0E0,0E0,0E0,0E0,0E0,0E0,0E0,0E0,0E0,0E0,0E0,0E0,0E0,0E0,0E0,0E0,0E0,0E0,0E0,0E0,0E0,0E0,0E0,0E0,0E0,0E0],"parents":[2147483647,0,0,1,1,2,2,3,3,4,4,5,5,6,6,7,7,8,8,9,9,10,10,11,11,12,12,13,13,14,14,16,16,17,17,19,19,20,20,21,21,22,22,23,23,24,24,25,25,26,26,27,27,28,28,29,29,30,30,31,31,32,32,35,35,36,36,37,37,38,38,39,39,40,40,42,42,43,43,44,44,45,45,46,46,48,48,49,49,51,51,53,53,54,54,55,55,56,56,57,57,58,58,59,59,60,60,61,61,63,63,64,64,65,65,66,66,67,67,68,68,69,69,70,70,71,71,72,72,73,73,74,74,75,75,77,77,78,78,79,79,80,80,82,82,83,83,85,85,87,87,88,88,89,89,93,93,95,95,99,99,100,100,102,102,104,104,106,106,107,107,109,109,110,110,111,111,112,112,113,113,115,115,116,116,117,117,118,118,120,120,122,122,123,123,125,125,126,126,128,128,135,135,136,136,137,137,138,138,139,139,142,142,143,143,149,149,150,150,152,152,154,154,156,156,159,159,160,160,161,161,162,162],"right_children":[2,4,6,8,10,12,14,16,18,20,22,24,26,28,30,-1,32,34,-1,36,38,40,42,44,46,48,50,52,54,56,58,60,62,-1,-1,64,66,68,70,72,74,-1,76,78,80,82,84,-1,86,88,-1,90,-1,92,94,96,98,100,102,104,106,108,-1,110,112,114,116,118,120,122,124,126,128,130,132,134,-1,136,138,140,142,-1,144,146,-1,148,-1,150,152,154,-1,-1,-1,156,-1,158,-1,-1,-1,160,162,-1,164,-1,166,-1,168,170,-1,172,174,176,178,180,-1,182,184,186,188,-1,190,-1,192,194,-1,196,198,-1,200,-1,-1,-1,-1,-1,-1,202,204,206,208,210,-1,-1,212,214,-1,-1,-1,-1,-1,216,218,-1,220,-1,222,-1,224,-1,-1,226,228,230,232,-1,-1,-1,-1,-1,-1,-1,-1,-1,-1,-1,-1,-1,-1,-1,-1,-1,-1,-1,-1,-1,-1,-1,-1,-1,-1,-1,-1,-1,-1,-1,-1,-1,-1,-1,-1,-1,-1,-1,-1,-1,-1,-1,-1,-1,-1,-1,-1,-1,-1,-1,-1,-1,-1,-1,-1,-1,-1,-1,-1,-1,-1,-1,-1,-1,-1,-1,-1,-1,-1],"split_conditions":[2.9893946E7,-4.8792022E-1,9.772675E0,-1.2559871E-1,4.60784E-1,5.4363525E-1,3.58688E7,2.968E1,6.469168E-2,4.09429E-1,5.64274E-2,8.050148E-1,3.6797087E0,-7.823933E-1,2.37785E-1,-0E0,-2.1880088E-2,6.172471E-2,-0E0,1.0092495E-1,5.477071E-1,8.143278E-1,5.2758594E0,4.2192947E-2,7.750383E-2,-8.5082877E-1,8.26E1,3.7953496E-1,-8.3471495E-1,-2.3946759E-1,2.067592E0,-1.1908859E0,5.59271E-1,4.1330466E-1,-0E0,6.0377E6,1.9395267E1,4.0793847E-2,5.425119E0,4.806E1,2.526872E7,-0E0,1.3375776E0,3.002E1,-2.1457564E-2,-1.5993508E0,6.124289E-1,-4.0807545E-2,2.1473306E-1,5.175584E7,-0E0,5.308762E-1,-0E0,-4.1053492E-1,2.3753643E0,7.058E1,-1.8335813E0,5.3271E-1,4.94E1,-7.927862E-1,-1.1113943E0,-8.292947E-2,-0E0,-1.0225632E-1,4.8532972E-1,3.91075E7,3.31731E-1,-1.0174702E-1,-1.5850459E0,-6.5413135E-1,6.8254465E-1,1.3857114E-1,2.82888E6,1.2109619E0,6.291606E-1,1.3730052E0,-0E0,9.7082376E-1,-5.091817E-2,4.2381E-1,-1.59368E0,-0E0,-6.719111E-3,5.798223E-2,-0E0,-4.8492372E-1,-0E0,7.568404E-1,5.4117477E-1,-4.520042E-1,-0E0,2.3314275E-1,-0E0,-1.1114895E0,-0E0,-2.1286935E-2,-0E0,-0E0,-4.8781773E-1,-7.839853E-1,-2.907648E-1,-0E0,-1.5318252E0,-0E0,2.47546E6,-0E0,-7.076899E-1,1.403098E0,-0E0,-7.755547E-1,-1.1988431E-1,6.164E1,-2.7207525E-3,2.2367141E0,-0E0,1.7329077E0,2.2375755E1,1.9382E-1,2.97375E6,-0E0,1.2850469E0,-0E0,6.766E1,1.0395262E0,-0E0,7.841503E-1,4.364E1,-0E0,3.31711E7,-3.2328773E-1,-0E0,1.6575699E-1,-0E0,-3.441147E-1,-0E0,2.982E1,2.0968096E-1,-4.0770587E-1,-3.563875E-1,1.0340251E0,-0E0,-0E0,-9.371809E-2,1.989964E7,-0E0,1.8372834E-1,-0E0,-0E0,3.818964E-1,2.998E1,1.4616627E0,-0E0,3.290196E-1,-0E0,3.02E1,-0E0,6.44655E7,2.7801722E-1,-0E0,1.073397E0,-9.935731E-1,-8.910503E-1,9.2225873E-1,-0E0,-2.2950001E-1,-0E0,1.6628198E-1,-0E0,-4.2265528E-1,-5.7603717E-1,-0E0,-0E0,-4.739122E-1,2.3845288E-1,-5.8721896E-2,3.861286E-1,-0E0,-0E0,-3.482345E-2,-4.8206228E-1,-0E0,4.316079E-1,-0E0,-0E0,-2.7377758E-2,-0E0,3.2967377E-1,1.6166465E-1,-2.817294E-1,-5.8965963E-1,-0E0,-2.8919643E-1,-0E0,6.197236E-1,-0E0,-1.4411023E-1,-0E0,3.4114006E-1,-0E0,6.294859E-1,-0E0,-0E0,3.704045E-1,-0E0,-4.1856775E-1,2.7345287E-2,-4.6334818E-1,2.7663273E-1,-0E0,1.6179648E-1,-0E0,-0E0,-4.914229E-1,-0E0,-6.019832E-1,2.4661152E-1,-0E0,-3.2777748E-1,-0E0,-0E0,-6.293563E-1,5.253943E-1,-0E0,-5.484919E-1,-0E0,-2.4642535E-2,2.9163915E-1,-0E0,4.0413582E-1,-0E0,1.257329E-1,-2.9597017E-1,-0E0],"split_indices":[28,34,20,1,21,7,28,43,41,22,38,4,20,10,22,0,12,31,0,6,12,2,20,36,37,16,23,3,6,12,7,10,22,0,0,26,20,12,20,44,26,0,29,43,40,10,10,0,31,26,0,13,0,25,3,44,29,22,44,19,3,33,0,14,11,26,21,3,17,19,3,14,26,9,0,37,0,3,5,22,25,0,13,6,0,9,0,11,6,16,0,0,0,19,0,35,0,0,0,1,0,0,32,0,26,0,16,10,0,16,17,44,42,2,0,16,20,21,27,0,15,0,44,4,0,6,44,0,26,0,0,0,0,0,0,43,29,2,8,14,0,0,41,26,0,0,0,0,0,43,10,0,12,0,43,0,26,0,0,3,16,29,7,0,0,0,0,0,0,0,0,0,0,0,0,0,0,0,0,0,0,0,0,0,0,0,0,0,0,0,0,0,0,0,0,0,0,0,0,0,0,0,0,0,0,0,0,0,0,0,0,0,0,0,0,0,0,0,0,0,0,0,0,0,0,0,0,0,0,0,0,0,0],"split_type":[0,0,0,0,0,0,0,0,0,0,0,0,0,0,0,0,0,0,0,0,0,0,0,0,0,0,0,0,0,0,0,0,0,0,0,0,0,0,0,0,0,0,0,0,0,0,0,0,0,0,0,0,0,0,0,0,0,0,0,0,0,0,0,0,0,0,0,0,0,0,0,0,0,0,0,0,0,0,0,0,0,0,0,0,0,0,0,0,0,0,0,0,0,0,0,0,0,0,0,0,0,0,0,0,0,0,0,0,0,0,0,0,0,0,0,0,0,0,0,0,0,0,0,0,0,0,0,0,0,0,0,0,0,0,0,0,0,0,0,0,0,0,0,0,0,0,0,0,0,0,0,0,0,0,0,0,0,0,0,0,0,0,0,0,0,0,0,0,0,0,0,0,0,0,0,0,0,0,0,0,0,0,0,0,0,0,0,0,0,0,0,0,0,0,0,0,0,0,0,0,0,0,0,0,0,0,0,0,0,0,0,0,0,0,0,0,0,0,0,0,0,0,0,0,0,0,0,0,0,0,0,0,0],"sum_hessian":[2.3461462E3,1.0364778E3,1.3096685E3,2.480759E2,7.8840186E2,6.761992E2,6.334692E2,2.3568309E2,1.2392801E1,6.598763E2,1.2852559E2,5.4089764E2,1.3530159E2,9.545467E1,5.380145E2,8.333778E0,2.2734932E2,1.015792E1,2.2348816E0,3.9551862E2,2.6435767E2,9.6444305E1,3.2081284E1,4.7726163E2,6.3636013E1,1.9977268E1,1.1532432E2,3.9608624E1,5.584605E1,3.4847656E1,5.0316684E2,1.0293488E2,1.2441444E2,8.315092E0,1.842828E0,1.6667908E2,2.2883954E2,1.9149269E2,7.286495E1,7.406257E1,2.2381742E1,1.6058855E1,1.6022427E1,4.1835413E2,5.8907497E1,5.1936058E1,1.1699955E1,7.1650224E0,1.2812247E1,1.06348854E2,8.975465E0,3.1893314E1,7.7153068E0,1.7141901E1,3.870415E1,1.9267492E1,1.5580166E1,4.8461246E2,1.8554394E1,9.474951E0,9.345993E1,1.2313543E2,1.279006E0,1.0336809E2,6.3310986E1,2.0748581E2,2.1353735E1,1.4797821E2,4.351449E1,1.4544071E1,5.8320885E1,3.3167038E1,4.0895527E1,1.3835031E1,8.546713E0,1.3288036E1,2.7343903E0,2.2961359E2,1.8874054E2,2.3231464E1,3.5676033E1,3.3004932E0,4.8635563E1,7.6697006E0,4.030255E0,9.170223E0,3.642024E0,2.6130066E1,8.021879E1,3.0094542E1,1.798774E0,9.780348E0,7.361553E0,3.529862E1,3.4055312E0,1.3188873E1,6.0786185E0,1.1552858E0,1.442488E1,4.493254E2,3.5287033E1,9.304227E0,9.250167E0,1.890007E0,7.584944E0,7.2712173E0,8.618871E1,1.1589628E2,7.2391496E0,5.217289E1,5.11952E1,5.5958557E1,7.3524284E0,2.0149596E2,5.989853E0,1.2125093E1,9.2286415E0,7.432753E1,7.365068E1,2.5260694E0,4.098842E1,3.9836402E0,1.05604315E1,5.0251217E1,8.069666E0,1.5163873E1,1.8003166E1,4.391057E0,3.650447E1,1.2218082E1,1.6169486E0,6.583927E0,1.9627852E0,1.208028E1,1.2077565E0,1.9922722E2,3.0386366E1,1.06704384E2,8.2036156E1,1.739588E1,5.835585E0,2.4669259E0,3.320911E1,4.3899883E1,4.735682E0,6.6031375E0,1.0665629E0,1.7431794E0,7.4270434E0,1.2625998E1,1.3504069E1,4.7987747E0,7.542001E1,1.6395383E0,2.8455004E1,3.6441407E0,3.165448E1,1.1246669E1,1.9422045E0,3.6437233E1,4.1288818E2,2.0492805E1,1.4794229E1,1.1592275E0,8.0909395E0,1.1192845E0,6.4656596E0,2.1585335E1,6.460338E1,1.1049098E2,5.4053E0,6.349134E0,4.5823753E1,1.5516036E1,3.567917E1,4.7694164E1,8.26439E0,1.1251087E0,6.2273197E0,1.9778352E2,3.712429E0,9.796166E0,2.3289266E0,2.2653298E0,6.9633117E0,1.5377658E1,5.894987E1,2.0412365E1,5.323831E1,3.604557E1,4.9428477E0,9.556195E0,1.0042355E0,4.7578274E1,2.6729434E0,8.878951E0,6.284921E0,1.4558331E1,3.4448352E0,3.4389027E1,2.1154413E0,2.6121895E1,1.7310533E2,1.4870087E1,1.5516279E1,7.79666E1,2.873779E1,5.836305E1,2.3673107E1,1.4983245E1,2.4126344E0,4.3717046E0,2.8837404E1,1.1365644E0,4.2763317E1,9.612695E0,3.0133026E0,1.2456776E1,1.0472937E0,1.1743152E0,7.42457E1,2.6724154E1,1.7308487E0,3.046474E1,1.1897385E0,2.8769533E1,7.667701E0,1.7167385E1,3.957208E2,2.4429338E0,1.8049873E1,1.1901353E1,2.8928757E0],"tree_param":{"num_deleted":"0","num_feature":"45","num_nodes":"233","size_leaf_vector":"1"}},{"base_weights":[-3.2663204E-2,1.20971724E-1,-2.2797894E-1,5.149403E-1,-0E0,-3.772929E-1,-0E0,1.8640018E-1,9.092237E-1,-4.4216385E-1,8.657196E-2,-4.7727406E-1,-0E0,-6.081475E-1,8.6617954E-2,4.4462958E-1,-8.685786E-2,-0E0,9.879037E-1,-0E0,-8.009698E-1,-3.5551003E-1,1.6295834E-1,-9.790603E-2,-6.471551E-1,4.6551386E-1,-2.8919724E-1,-8.7999344E-1,-0E0,-1.3386191E-1,2.3800981E-1,5.425001E-1,-0E0,2.0175037E-1,-4.3936676E-1,-0E0,1.0782657E0,6.528484E-1,-3.551165E-1,-1.0272882E0,-0E0,-0E0,-5.951245E-1,4.934453E-1,4.2992607E-2,-4.585917E-1,3.545703E-2,-0E0,-7.8390384E-1,-0E0,6.9778603E-1,-0E0,-5.2879447E-1,-0E0,-1.0011998E0,6.324898E-2,-4.601281E-1,-7.065692E-2,4.0288997E-1,-0E0,7.216991E-1,-0E0,2.7247423E-1,-8.4774023E-1,-0E0,1.1334243E0,-0E0,-0E0,9.3873787E-1,-0E0,-4.741105E-1,-0E0,-1.0976607E0,3.4856525E-1,-0E0,-0E0,-8.0254394E-1,-9.33441E-3,6.636175E-1,4.7657642E-1,-2.5323194E-2,-0E0,-7.238009E-1,2.639715E-1,-6.894762E-1,1.2206463E-1,-3.1624454E-1,-0E0,-8.5736823E-1,8.807601E-1,-0E0,-0E0,2.2756316E-1,-0E0,-7.156481E-1,-1.1013234E0,-0E0,4.705284E-1,-0E0,-6.791183E-1,-0E0,-0E0,-5.9414095E-1,-0E0,7.086956E-1,5.1175185E-2,-0E0,8.26392E-1,-0E0,-0E0,-1.0732244E0,1.1672674E0,-0E0,-0E0,1.0638664E0,1.2555775E-1,-0E0,-0E0,-1.1255444E0,-0E0,5.820652E-1,-0E0,-1.7728378E-1,-0E0,-1.0002836E0,-2.7991286E-1,-0E0,8.2245255E-1,-0E0,-0E0,6.4438957E-1,-1.1647983E-1,4.1399214E-1,-0E0,1.273087E-1,-8.773242E-1,-0E0,6.764775E-1,-1.0577314E-1,-0E0,-3.797933E-1,-0E0,7.3978543E-1,-6.838829E-1,-0E0,-1.6446061E-1,-0E0,-9.365958E-1,-0E0,1.0039284E0,-0E0,4.0920717E-1,-0E0,-0E0,-8.692923E-1,-5.842842E-1,-0E0,6.58483E-1,-0E0,-0E0,-4.015571E-1,-8.510434E-1,-0E0,-0E0,3.4863126E-1,-0E0,-7.74519E-1,-1.2686979E-2,4.099246E-1,9.262478E-1,-0E0,-0E0,1.6684434E-1,-0E0,-1.7165294E-1,4.339285E-1,-0E0,-6.154605E-1,-0E0,5.832457E-1,-0E0,5.395976E-1,-0E0,-0E0,1.79377E-1,-5.636327E-1,-0E0,-0E0,3.30652E-1,-1.3935213E-1,-0E0,-5.467934E-1,-0E0,-2.523009E-1,-0E0,-0E0,4.8894855E-1,-6.600394E-2,-0E0,-9.358842E-2,-0E0,3.916872E-1,-0E0,3.8978793E-2,-1.4083369E-1,-0E0,3.2904273E-1,-4.686318E-1,-0E0,4.5747894E-1,-0E0,-2.9304504E-1,-0E0,-9.445833E-2,-0E0,-0E0,4.7991297E-1,-0E0,-4.246985E-1,6.392194E-2,-0E0,-0E0,-1.6143146E-1,-0E0,1.6085467E-1,-4.8346612E-1,-0E0,-1.1981646E-1,7.048776E-3,5.197718E-1,-0E0,-0E0,2.3772424E-1,-4.7540846E-1,-0E0,3.7827533E-1,-0E0,-0E0,1.0143233E-1,-2.4755669E-1,-0E0,-0E0,-4.587403E-1,-5.348132E-2,-0E0,-0E0,2.7335012E-1,-0E0,-4.0523192E-1,-0E0,-1.5261574E-1,3.7962225E-1,-0E0,-0E0,4.9040025E-1],"categories":[],"categories_nodes":[],"categories_segments":[],"categories_sizes":[],"default_left":[0,0,0,0,0,0,0,0,0,0,0,0,0,0,0,0,0,0,0,0,0,0,0,0,0,0,0,0,0,0,0,0,0,0,0,0,0,0,0,0,0,0,0,0,0,0,0,0,0,0,0,0,0,0,0,0,0,0,0,0,0,0,0,0,0,0,0,0,0,0,0,0,0,0,0,0,0,0,0,0,0,0,0,0,0,0,0,0,0,0,0,0,0,0,0,0,0,0,0,0,0,0,0,0,0,0,0,0,0,0,0,0,0,0,0,0,0,0,0,0,0,0,0,0,0,0,0,0,0,0,0,0,0,0,0,0,0,0,0,0,0,0,0,0,0,0,0,0,0,0,0,0,0,0,0,0,0,0,0,0,0,0,0,0,0,0,0,0,0,0,0,0,0,0,0,0,0,0,0,0,0,0,0,0,0,0,0,0,0,0,0,0,0,0,0,0,0,0,0,0,0,0,0,0,0,0,0,0,0,0,0,0,0,0,0,0,0,0,0,0,0,0,0,0,0,0,0,0,0,0,0,0,0,0,0,0,0,0,0,0,0,0,0,0,0,0,0,0,0,0,0,0,0,0,0],"id":2,"left_children":[1,3,5,7,9,11,13,15,17,19,21,23,25,27,29,31,33,-1,35,37,39,41,43,45,47,49,51,53,-1,55,57,59,-1,61,63,-1,65,67,69,71,-1,73,75,77,79,81,83,85,87,-1,89,91,93,-1,95,97,99,101,103,105,107,-1,-1,109,-1,111,-1,-1,113,115,-1,-1,117,119,121,-1,123,125,127,129,131,133,135,137,139,141,143,145,147,149,-1,-1,151,-1,153,155,-1,157,159,161,-1,163,165,167,169,171,173,175,-1,-1,177,179,-1,-1,181,183,-1,-1,185,-1,187,-1,189,-1,191,193,-1,195,197,199,201,203,205,-1,-1,207,-1,209,211,-1,-1,213,215,217,219,221,223,225,227,229,-1,231,-1,-1,233,-1,-1,235,-1,237,239,241,-1,243,245,-1,247,249,251,253,-1,-1,-1,-1,-1,-1,-1,-1,-1,-1,-1,-1,-1,-1,-1,-1,-1,-1,-1,-1,-1,-1,-1,-1,-1,-1,-1,-1,-1,-1,-1,-1,-1,-1,-1,-1,-1,-1,-1,-1,-1,-1,-1,-1,-1,-1,-1,-1,-1,-1,-1,-1,-1,-1,-1,-1,-1,-1,-1,-1,-1,-1,-1,-1,-1,-1,-1,-1,-1,-1,-1,-1,-1,-1,-1,-1,-1,-1,-1,-1,-1,-1,-1,-1,-1],"loss_changes":[6.64074E1,5.2234776E1,3.3551605E1,2.2945015E1,3.2461212E1,2.439373E1,2.0756016E1,1.475857E1,1.2904472E1,2.3806232E1,2.490812E1,2.3414253E1,1.658971E1,1.2391972E1,1.2528055E1,8.024593E0,8.402607E0,0E0,1.1716675E1,1.4451167E1,1.6060947E1,1.33179655E1,2.2224785E1,1.2297038E1,1.9883636E1,1.068461E1,9.143995E0,7.547268E0,0E0,1.1282575E1,1.5087904E1,8.394312E0,0E0,3.0642152E0,1.2521341E1,0E0,5.670433E0,8.6042795E0,1.0563871E1,6.6211014E0,0E0,1.6318334E0,1.1707077E1,2.0507263E1,2.0334177E1,1.4173726E1,1.2888787E1,4.590243E0,1.0393875E1,0E0,8.853086E0,6.671809E-1,9.63828E0,0E0,6.297497E0,5.155996E0,9.790965E0,6.78179E0,1.5620987E1,4.2627975E-2,7.561901E0,0E0,0E0,8.261185E0,0E0,5.641739E0,0E0,0E0,3.403288E0,2.0923543E-1,0E0,0E0,2.3659973E0,2.5285635E0,2.4274215E-1,0E0,1.2648968E1,9.154132E-1,1.74393E1,1.3474649E1,1.4759267E1,5.407421E-1,8.485376E0,1.9348278E1,8.5753536E-1,6.989618E0,8.840891E0,4.246462E-1,1.224086E1,6.6258087E0,0E0,0E0,1.2986149E0,0E0,8.6756935E0,3.879982E0,0E0,4.274867E0,2.4131746E0,8.081747E0,0E0,2.1798518E0,4.1252775E0,3.5480947E0,1.5339584E1,1.5944628E0,9.7385937E-1,5.37912E0,0E0,0E0,8.430918E0,3.412796E0,0E0,0E0,3.983841E-1,1.3725222E0,0E0,0E0,3.4990692E-1,0E0,8.037553E-1,0E0,2.8918818E-1,0E0,8.617363E0,1.8531826E0,0E0,1.9543068E1,2.2627875E-1,3.1874225E-1,1.5660492E1,1.5145956E1,1.1607123E1,0E0,0E0,5.9339905E0,0E0,1.2874857E1,6.93943E0,0E0,0E0,3.6430743E-1,4.3524756E0,4.3546553E0,1.6408406E-1,1.0464065E0,9.3261397E-1,1.0367096E1,7.4074304E-1,2.775589E0,0E0,4.890046E-1,0E0,0E0,4.9953384E0,0E0,0E0,3.0138226E0,0E0,4.3288404E-1,1.15884E0,2.5418262E0,0E0,1.591695E-1,2.9231641E0,0E0,3.6193657E-1,2.7835925E0,7.189172E0,8.649128E0,0E0,0E0,0E0,0E0,0E0,0E0,0E0,0E0,0E0,0E0,0E0,0E0,0E0,0E0,0E0,0E0,0E0,0E0,0E0,0E0,0E0,0E0,0E0,0E0,0E0,0E0,0E0,0E0,0E0,0E0,0E0,0E0,0E0,0E0,0E0,0E0,0E0,0E0,0E0,0E0,0E0,0E0,0E0,0E0,0E0,0E0,0E0,0E0,0E0,0E0,0E0,0E0,0E0,0E0,0E0,0E0,0E0,0E0,0E0,0E0,0E0,0E0,0E0,0E0,0E0,0E0,0E0,0E0,0E0,0E0,0E0,0E0,0E0,0E0,0E0,0E0,0E0,0E0,0E0,0E0,0E0,0E0,0E0,0E0,0E0],"parents":[2147483647,0,0,1,1,2,2,3,3,4,4,5,5,6,6,7,7,8,8,9,9,10,10,11,11,12,12,13,13,14,14,15,15,16,16,18,18,19,19,20,20,21,21,22,22,23,23,24,24,25,25,26,26,27,27,29,29,30,30,31,31,33,33,34,34,36,36,37,37,38,38,39,39,41,41,42,42,43,43,44,44,45,45,46,46,47,47,48,48,50,50,51,51,52,52,54,54,55,55,56,56,57,57,58,58,59,59,60,60,63,63,65,65,68,68,69,69,72,72,73,73,74,74,76,76,77,77,78,78,79,79,80,80,81,81,82,82,83,83,84,84,85,85,86,86,87,87,88,88,89,89,92,92,94,94,95,95,97,97,98,98,99,99,101,101,102,102,103,103,104,104,105,105,106,106,107,107,110,110,111,111,114,114,115,115,118,118,120,120,122,122,124,124,125,125,127,127,128,128,129,129,130,130,131,131,132,132,135,135,137,137,138,138,141,141,142,142,143,143,144,144,145,145,146,146,147,147,148,148,149,149,151,151,154,154,157,157,159,159,160,160,161,161,163,163,164,164,166,166,167,167,168,168,169,169],"right_children":[2,4,6,8,10,12,14,16,18,20,22,24,26,28,30,32,34,-1,36,38,40,42,44,46,48,50,52,54,-1,56,58,60,-1,62,64,-1,66,68,70,72,-1,74,76,78,80,82,84,86,88,-1,90,92,94,-1,96,98,100,102,104,106,108,-1,-1,110,-1,112,-1,-1,114,116,-1,-1,118,120,122,-1,124,126,128,130,132,134,136,138,140,142,144,146,148,150,-1,-1,152,-1,154,156,-1,158,160,162,-1,164,166,168,170,172,174,176,-1,-1,178,180,-1,-1,182,184,-1,-1,186,-1,188,-1,190,-1,192,194,-1,196,198,200,202,204,206,-1,-1,208,-1,210,212,-1,-1,214,216,218,220,222,224,226,228,230,-1,232,-1,-1,234,-1,-1,236,-1,238,240,242,-1,244,246,-1,248,250,252,254,-1,-1,-1,-1,-1,-1,-1,-1,-1,-1,-1,-1,-1,-1,-1,-1,-1,-1,-1,-1,-1,-1,-1,-1,-1,-1,-1,-1,-1,-1,-1,-1,-1,-1,-1,-1,-1,-1,-1,-1,-1,-1,-1,-1,-1,-1,-1,-1,-1,-1,-1,-1,-1,-1,-1,-1,-1,-1,-1,-1,-1,-1,-1,-1,-1,-1,-1,-1,-1,-1,-1,-1,-1,-1,-1,-1,-1,-1,-1,-1,-1,-1,-1,-1,-1],"split_conditions":[3.12977E-1,-9.3086946E-1,4.43515E-1,2.66667E-1,5.0466084E0,1.6397156E1,3.79E1,3.004E1,-1.7235534E0,-1.338881E-1,1.94444E-1,-4.1793784E-1,3.363361E-1,7.5941676E-1,1.928906E7,8.2801914E-1,-2.8936642E-1,-0E0,5.113338E6,3.794584E0,1.0161835E0,-4.8712575E-1,-5.480632E-1,-9.945036E-1,-4.5764008E-1,-8.618179E-1,1.9499421E-1,-1.6078273E0,-0E0,-5.4243064E-1,-3.2337766E-2,-1.453362E0,-0E0,1.6236666E-1,3.0727405E-2,-0E0,8.48E1,-7.5675535E-1,2.9591281E-2,-4.4851843E-1,-0E0,6.1E1,-1.6088139E0,-1.0283125E-1,-1.3791368E0,-8.848901E-1,-4.5933437E-2,-5.856565E-1,-1.1350706E0,-0E0,5.4887164E-1,-8.879817E-1,2.56886E6,-0E0,1.3766144E8,2.992E1,4.8854864E-1,4.87578E-1,1.9601852E-2,-1.7108388E0,9.998884E-1,-0E0,2.7247423E-1,-1.740882E0,-0E0,2.0562277E0,-0E0,-0E0,4.12214E-1,-6.835532E-1,-4.741105E-1,-0E0,-1.025428E0,1.3848844E-1,-6.50527E-1,-0E0,-1.5268052E-1,-3.4587398E-1,8.7404954E-1,4.09429E-1,1.1870779E0,4.286007E-2,3.829E-1,-6.834966E-1,-1.4274071E0,-7.5897765E-1,3.95604E-1,-7.629982E-1,8.27E1,1.3855705E-1,-0E0,-0E0,1.0183915E0,-0E0,2.97E1,1.2348294E0,-0E0,3.5882507E-2,2.178766E-2,2.64286E-1,-0E0,1.08301115E1,-1.5457416E0,1.6630144E1,6.6784203E-1,-5.265169E-1,-4.9317546E-2,1.6091512E0,-0E0,-0E0,7.957154E-2,1.1607368E0,-0E0,-0E0,5.0266013E-2,-2.8556454E-1,-0E0,-0E0,3.04E1,-0E0,-1.752814E-2,-0E0,1.0271125E-1,-0E0,2.8824532E-1,3.2408573E1,-0E0,-8.4832424E-1,1.7883742E0,3.02E1,1.1323104E0,2.40816E-1,4.22E1,-0E0,1.273087E-1,8.26E1,-0E0,4.15E-1,3.4179932E7,-0E0,-3.797933E-1,7.58E1,-8.427098E-2,-1.175564E-1,2.565621E7,-7.313485E-2,-9.551748E-1,1.337421E0,7.7471477E-1,1.0812142E0,-0E0,1.2318959E0,-0E0,-0E0,9.580606E-1,-5.842842E-1,-0E0,8E1,-0E0,1.3857114E-1,1.284771E0,-3.3596137E-1,-0E0,-3.4565434E-2,4.58333E-1,-0E0,-8.228723E-1,3.286108E-2,1.9433428E0,-1.0311381E0,-0E0,-0E0,1.6684434E-1,-0E0,-1.7165294E-1,4.339285E-1,-0E0,-6.154605E-1,-0E0,5.832457E-1,-0E0,5.395976E-1,-0E0,-0E0,1.79377E-1,-5.636327E-1,-0E0,-0E0,3.30652E-1,-1.3935213E-1,-0E0,-5.467934E-1,-0E0,-2.523009E-1,-0E0,-0E0,4.8894855E-1,-6.600394E-2,-0E0,-9.358842E-2,-0E0,3.916872E-1,-0E0,3.8978793E-2,-1.4083369E-1,-0E0,3.2904273E-1,-4.686318E-1,-0E0,4.5747894E-1,-0E0,-2.9304504E-1,-0E0,-9.445833E-2,-0E0,-0E0,4.7991297E-1,-0E0,-4.246985E-1,6.392194E-2,-0E0,-0E0,-1.6143146E-1,-0E0,1.6085467E-1,-4.8346612E-1,-0E0,-1.1981646E-1,7.048776E-3,5.197718E-1,-0E0,-0E0,2.3772424E-1,-4.7540846E-1,-0E0,3.7827533E-1,-0E0,-0E0,1.0143233E-1,-2.4755669E-1,-0E0,-0E0,-4.587403E-1,-5.348132E-2,-0E0,-0E0,2.7335012E-1,-0E0,-4.0523192E-1,-0E0,-1.5261574E-1,3.7962225E-1,-0E0,-0E0,4.9040025E-1],"split_indices":[21,12,21,21,20,20,23,43,18,12,21,0,8,1,26,5,9,0,28,20,18,12,9,13,5,12,4,11,0,16,41,11,0,25,36,0,23,12,39,40,0,23,31,37,17,31,11,1,1,0,30,16,26,0,26,43,33,21,37,0,29,0,0,14,0,17,0,0,22,31,0,0,19,18,34,0,41,33,0,22,7,41,22,19,29,14,21,34,23,13,0,0,29,0,24,25,0,37,38,22,0,20,19,20,17,1,41,9,0,0,41,4,0,0,39,34,0,0,24,0,41,0,40,0,39,20,0,4,13,43,32,21,23,0,0,23,0,21,28,0,0,23,18,35,28,2,9,34,11,10,0,6,0,0,39,0,0,23,0,14,14,35,0,40,21,0,1,42,6,4,0,0,0,0,0,0,0,0,0,0,0,0,0,0,0,0,0,0,0,0,0,0,0,0,0,0,0,0,0,0,0,0,0,0,0,0,0,0,0,0,0,0,0,0,0,0,0,0,0,0,0,0,0,0,0,0,0,0,0,0,0,0,0,0,0,0,0,0,0,0,0,0,0,0,0,0,0,0,0,0,0,0,0,0,0],"split_type":[0,0,0,0,0,0,0,0,0,0,0,0,0,0,0,0,0,0,0,0,0,0,0,0,0,0,0,0,0,0,0,0,0,0,0,0,0,0,0,0,0,0,0,0,0,0,0,0,0,0,0,0,0,0,0,0,0,0,0,0,0,0,0,0,0,0,0,0,0,0,0,0,0,0,0,0,0,0,0,0,0,0,0,0,0,0,0,0,0,0,0,0,0,0,0,0,0,0,0,0,0,0,0,0,0,0,0,0,0,0,0,0,0,0,0,0,0,0,0,0,0,0,0,0,0,0,0,0,0,0,0,0,0,0,0,0,0,0,0,0,0,0,0,0,0,0,0,0,0,0,0,0,0,0,0,0,0,0,0,0,0,0,0,0,0,0,0,0,0,0,0,0,0,0,0,0,0,0,0,0,0,0,0,0,0,0,0,0,0,0,0,0,0,0,0,0,0,0,0,0,0,0,0,0,0,0,0,0,0,0,0,0,0,0,0,0,0,0,0,0,0,0,0,0,0,0,0,0,0,0,0,0,0,0,0,0,0,0,0,0,0,0,0,0,0,0,0,0,0,0,0,0,0,0,0],"sum_hessian":[2.1759622E3,1.1894363E3,9.8652594E2,2.6193686E2,9.2749945E2,5.9542664E2,3.9109927E2,1.573085E2,1.0462836E2,1.3488304E2,7.926164E2,4.7890292E2,1.16523705E2,4.8415726E1,3.4268356E2,9.945526E1,5.785324E1,2.8928123E0,1.0173555E2,5.718469E1,7.769836E1,9.7091576E1,6.955248E2,1.6669003E2,3.122129E2,4.9766926E1,6.6756775E1,3.873944E1,9.676285E0,1.12652954E2,2.300306E2,9.3831085E1,5.6241765E0,1.6385687E1,4.1467552E1,6.378125E0,9.535742E1,2.2764648E1,3.442004E1,6.216391E1,1.5534446E1,2.5316355E1,7.177522E1,1.6242163E2,5.3310315E2,6.47508E1,1.0193923E2,6.730553E1,2.4490738E2,6.0835547E0,4.3683372E1,1.4606579E1,5.21502E1,1.4507617E0,3.7288677E1,5.149086E1,6.116209E1,5.912209E1,1.7090851E2,2.5016506E1,6.881458E1,5.072601E0,1.13130865E1,2.8021597E1,1.3445957E1,9.064586E1,4.711561E0,2.3718638E0,2.0392786E1,1.9286572E1,1.5133467E1,2.3116508E0,5.985226E1,1.2692295E1,1.2624061E1,1.4462517E1,5.7312702E1,2.638889E1,1.3603273E2,9.188649E1,4.4121667E2,1.2144883E1,5.260592E1,8.835266E1,1.358657E1,2.6153036E1,4.115249E1,2.615346E1,2.1875392E2,3.8556038E1,5.1273346E0,2.4615915E0,1.2144987E1,5.19357E0,4.695663E1,3.588073E1,1.407949E0,2.349352E1,2.799734E1,4.890655E1,1.2255541E1,3.98025E1,1.9319588E1,8.5071075E1,8.583743E1,1.5538371E1,9.478136E0,6.3380768E1,5.433813E0,3.6431768E0,2.437842E1,8.956426E1,1.0816029E0,1.6715655E0,1.872122E1,1.2533676E1,6.7528954E0,1.0973037E0,5.8754955E1,1.151175E0,1.154112E1,5.639369E0,6.9846916E0,8.041244E0,4.9271458E1,1.0974942E1,1.5413948E1,1.1408774E2,2.1945E1,9.511009E0,8.237548E1,3.8469843E2,5.6518265E1,4.9467664E0,7.198117E0,4.6594124E1,6.011794E0,5.425543E1,3.4097233E1,1.6800075E0,1.1906563E1,1.3388094E1,1.2764942E1,2.712227E1,1.403022E1,1.49614525E1,1.1192008E1,1.971446E2,2.1609306E1,3.6079697E1,2.4763393E0,1.1000878E1,1.1441089E0,3.8891594E0,4.306747E1,3.2915253E1,2.9654784E0,2.1493341E1,2.00018E0,1.3770425E1,1.4226915E1,4.2032665E1,6.8738856E0,2.2606478E1,1.7196024E1,1.377998E0,1.794159E1,6.4757675E1,2.0313393E1,6.782409E1,1.8013351E1,2.2869382E0,1.3251432E1,2.3542376E0,7.123898E0,6.1379124E1,2.0016432E0,2.2724686E1,1.6537349E0,8.7690025E1,1.8742313E0,1.7581583E1,1.1396363E0,1.577962E0,1.0955714E1,5.596177E1,2.7931886E0,1.4785476E0,1.00625725E1,5.7775855E0,1.2071064E0,4.593119E1,3.3402703E0,9.6166525E0,1.3582897E0,1.8092682E1,9.5995056E1,1.1617249E1,1.0327751E1,7.918306E0,1.5927032E0,7.705776E1,5.317717E0,1.5282082E2,2.318776E2,1.0192415E1,4.6325848E1,4.5152042E1,1.4420805E0,4.2501286E1,1.1754141E1,1.9564201E1,1.45330305E1,8.974442E0,4.413652E0,1.374841E0,1.13901005E1,4.931828E0,2.2190443E1,8.814276E0,5.215945E0,2.2717617E0,1.2689691E1,3.3562443E0,7.8357635E0,1.8647841E2,1.0666202E1,1.1498332E1,1.0110973E1,3.4380375E1,1.6993245E0,1.4062225E0,9.594656E0,3.936121E1,3.7062604E0,2.0297668E1,1.1956725E0,4.500119E0,9.270306E0,1.3126811E1,1.100104E0,4.8798018E0,3.7152863E1,1.249946E1,1.0107018E1,1.6882024E0,1.5507821E1,1.9224728E0,1.6019117E1,3.6958576E1,2.77991E1,1.6967924E1,3.34547E0,1.8220704E0,6.6002014E1],"tree_param":{"num_deleted":"0","num_feature":"45","num_nodes":"255","size_leaf_vector":"1"}},{"base_weights":[-3.0855574E-2,-1.5953813E-1,7.110224E-2,-5.4471415E-1,-8.7177835E-2,5.664807E-1,7.5352984E-3,-6.587522E-1,-0E0,1.2897998E-1,-2.373437E-1,6.344817E-1,-0E0,-1.16084844E-1,1.9446452E-1,-0E0,-7.772132E-1,2.7996778E-1,-1.3729043E-1,-5.3621936E-1,-2.4069482E-2,7.261858E-1,-0E0,-5.2240737E-2,-7.410387E-1,-1.8677655E-1,2.90709E-1,-0E0,1.6505662E-2,-0E0,-9.1257477E-1,-3.2199147E-1,4.413107E-1,-4.9876687E-1,7.27369E-2,-6.590736E-1,-0E0,5.543229E-2,-7.294416E-1,-0E0,7.975083E-1,-1.325225E-1,3.4332782E-1,-9.8698777E-1,-0E0,-0E0,-5.239895E-1,3.6190325E-1,-0E0,2.33657E-2,-0E0,-0E0,-9.9327725E-1,-0E0,-7.414482E-1,6.134664E-1,-0E0,-6.8652445E-1,-0E0,4.5114362E-1,-0E0,-0E0,-6.899278E-1,-2.495776E-1,9.896637E-2,4.1711897E-1,-6.401614E-2,-0E0,-8.357179E-1,8.537159E-1,-0E0,1.4385203E-1,-2.37618E-1,6.828132E-1,-0E0,-0E0,-1.0461905E0,-0E0,2.4976797E-1,-0E0,-9.393943E-1,-0E0,4.3863705E-1,-3.3532166E-1,9.803502E-2,-1.0899287E0,-0E0,-0E0,-8.684006E-1,7.005284E-1,-0E0,-4.8193836E-1,3.377354E-1,-7.582856E-1,-0E0,-0E0,6.9944197E-1,-0E0,-1.0279994E-1,-7.2241735E-1,-0E0,-0E0,-5.6578183E-1,4.2355523E-1,-0E0,-0E0,5.262572E-1,1.1289511E-1,-5.0663304E-1,-0E0,-9.555606E-1,8.8646334E-1,-0E0,-6.1988927E-2,3.995143E-1,7.4689396E-2,-3.315636E-1,8.4927636E-1,-0E0,-0E0,-1.7048948E-1,-5.433432E-1,-0E0,5.013969E-1,-0E0,-0E0,-1.2064935E0,1.8036339E-1,-3.4354812E-1,1.2802319E-1,6.7179614E-1,-0E0,-5.099937E-1,1.3122089E-1,-0E0,-0E0,-5.7201606E-1,-0E0,-4.5828146E-1,4.0481538E-1,-0E0,-4.0534273E-1,-0E0,2.5640658E-1,-0E0,-0E0,-3.983977E-1,4.6042946E-1,-0E0,-0E0,-1.00146435E-1,-0E0,-3.9380282E-1,-0E0,-3.5030684E-1,2.8224766E-1,-0E0,-0E0,3.339493E-1,1.3510118E-1,-8.3020724E-2,-0E0,-4.0025547E-1,-0E0,-4.997283E-1,-0E0,4.5331305E-1,-1.5110698E-1,-0E0,2.5731334E-1,-0E0,-0E0,1.5742803E-1,-5.868469E-2,-3.5248473E-1,-0E0,4.6668652E-1,8.931172E-3,-0E0,-0E0,-1.8317819E-1,-0E0,3.20493E-1,-6.3080436E-1,-0E0,-0E0,2.413886E-1,-3.1564167E-1,-0E0,-2.0816773E-2,2.6883587E-1,3.66127E-1,-0E0,-3.3841342E-1,-0E0,-0E0,6.838909E-2],"categories":[],"categories_nodes":[],"categories_segments":[],"categories_sizes":[],"default_left":[0,0,0,0,0,0,0,0,0,0,0,0,0,0,0,0,0,0,0,0,0,0,0,0,0,0,0,0,0,0,0,0,0,0,0,0,0,0,0,0,0,0,0,0,0,0,0,0,0,0,0,0,0,0,0,0,0,0,0,0,0,0,0,0,0,0,0,0,0,0,0,0,0,0,0,0,0,0,0,0,0,0,0,0,0,0,0,0,0,0,0,0,0,0,0,0,0,0,0,0,0,0,0,0,0,0,0,0,0,0,0,0,0,0,0,0,0,0,0,0,0,0,0,0,0,0,0,0,0,0,0,0,0,0,0,0,0,0,0,0,0,0,0,0,0,0,0,0,0,0,0,0,0,0,0,0,0,0,0,0,0,0,0,0,0,0,0,0,0,0,0,0,0,0,0,0,0,0,0,0,0,0,0,0,0,0,0,0,0,0,0,0,0,0,0,0,0],"id":3,"left_children":[1,3,5,7,9,11,13,15,-1,17,19,21,-1,23,25,27,29,31,33,35,37,39,-1,41,43,45,47,-1,49,-1,51,53,55,57,59,61,63,65,67,-1,69,71,73,75,-1,77,79,81,83,-1,-1,-1,85,-1,87,89,91,93,-1,95,97,-1,99,101,103,105,107,-1,109,111,-1,113,115,117,119,-1,121,-1,123,-1,125,127,129,131,133,135,-1,-1,137,139,-1,141,143,145,-1,-1,147,-1,149,151,-1,-1,153,155,-1,-1,157,159,161,-1,163,165,-1,167,169,171,173,175,-1,177,179,-1,-1,181,-1,-1,183,185,187,189,191,-1,193,195,-1,-1,-1,-1,-1,-1,-1,-1,-1,-1,-1,-1,-1,-1,-1,-1,-1,-1,-1,-1,-1,-1,-1,-1,-1,-1,-1,-1,-1,-1,-1,-1,-1,-1,-1,-1,-1,-1,-1,-1,-1,-1,-1,-1,-1,-1,-1,-1,-1,-1,-1,-1,-1,-1,-1,-1,-1,-1,-1,-1,-1,-1,-1],"loss_changes":[2.7314487E1,1.9673037E1,2.8288786E1,1.3891899E1,2.73619E1,7.4180946E0,2.3364923E1,1.2981304E1,0E0,1.370758E1,2.6568157E1,8.113789E0,0E0,1.4223921E1,1.653349E1,2.5040123E-3,1.3230438E1,2.2537638E1,1.08776245E1,9.770653E0,2.4429943E1,6.7256775E0,0E0,1.443291E1,1.0709486E1,8.269645E0,1.092098E1,0E0,1.5082608E-2,0E0,6.4230957E0,1.0016071E1,1.6711102E1,7.653968E0,5.2789316E0,5.5044556E0,1.7107247E0,1.5257156E1,4.5670033E0,0E0,5.552616E0,1.4139615E1,1.0935734E1,2.6426277E0,0E0,1.3272927E0,1.3174493E1,9.948696E0,3.7856522E0,0E0,0E0,0E0,7.490219E0,0E0,3.0315561E0,1.1009827E1,8.219527E0,2.7826252E0,0E0,6.0594945E0,1.04581915E-1,0E0,5.0119324E0,5.0987744E0,2.1744018E0,5.212385E0,1.8352245E1,0E0,3.2577076E0,3.5514565E0,0E0,8.6154995E0,1.3007536E1,8.049795E0,3.7744513E-1,0E0,5.050392E-1,0E0,3.4798357E0,0E0,6.9647846E0,3.5573046E0,1.1166866E1,3.6524568E0,6.28109E-2,4.886116E0,0E0,0E0,1.7678432E0,1.2554916E1,0E0,8.613157E0,2.9920027E0,2.7439404E0,0E0,0E0,6.6222763E0,0E0,2.633966E-1,5.152054E0,0E0,0E0,3.19281E0,1.394151E0,0E0,0E0,7.724575E0,6.473169E0,1.0252287E1,0E0,3.4902325E0,5.3990936E0,0E0,1.7722775E0,5.312257E0,3.4123569E0,1.610965E1,6.0393906E0,0E0,4.4709514E-3,1.2333277E0,0E0,0E0,2.928194E0,0E0,0E0,2.5078201E0,3.3630552E0,4.8679914E0,1.4720443E1,1.0512737E1,0E0,3.1138082E0,2.79738E-3,0E0,0E0,0E0,0E0,0E0,0E0,0E0,0E0,0E0,0E0,0E0,0E0,0E0,0E0,0E0,0E0,0E0,0E0,0E0,0E0,0E0,0E0,0E0,0E0,0E0,0E0,0E0,0E0,0E0,0E0,0E0,0E0,0E0,0E0,0E0,0E0,0E0,0E0,0E0,0E0,0E0,0E0,0E0,0E0,0E0,0E0,0E0,0E0,0E0,0E0,0E0,0E0,0E0,0E0,0E0,0E0,0E0,0E0,0E0,0E0,0E0,0E0,0E0],"parents":[2147483647,0,0,1,1,2,2,3,3,4,4,5,5,6,6,7,7,9,9,10,10,11,11,13,13,14,14,15,15,16,16,17,17,18,18,19,19,20,20,21,21,23,23,24,24,25,25,26,26,28,28,30,30,31,31,32,32,33,33,34,34,35,35,36,36,37,37,38,38,40,40,41,41,42,42,43,43,45,45,46,46,47,47,48,48,52,52,54,54,55,55,56,56,57,57,59,59,60,60,62,62,63,63,64,64,65,65,66,66,68,68,69,69,71,71,72,72,73,73,74,74,76,76,78,78,80,80,81,81,82,82,83,83,84,84,85,85,88,88,89,89,91,91,92,92,93,93,96,96,98,98,99,99,102,102,103,103,106,106,107,107,108,108,110,110,111,111,113,113,114,114,115,115,116,116,117,117,119,119,120,120,123,123,126,126,127,127,128,128,129,129,130,130,132,132,133,133],"right_children":[2,4,6,8,10,12,14,16,-1,18,20,22,-1,24,26,28,30,32,34,36,38,40,-1,42,44,46,48,-1,50,-1,52,54,56,58,60,62,64,66,68,-1,70,72,74,76,-1,78,80,82,84,-1,-1,-1,86,-1,88,90,92,94,-1,96,98,-1,100,102,104,106,108,-1,110,112,-1,114,116,118,120,-1,122,-1,124,-1,126,128,130,132,134,136,-1,-1,138,140,-1,142,144,146,-1,-1,148,-1,150,152,-1,-1,154,156,-1,-1,158,160,162,-1,164,166,-1,168,170,172,174,176,-1,178,180,-1,-1,182,-1,-1,184,186,188,190,192,-1,194,196,-1,-1,-1,-1,-1,-1,-1,-1,-1,-1,-1,-1,-1,-1,-1,-1,-1,-1,-1,-1,-1,-1,-1,-1,-1,-1,-1,-1,-1,-1,-1,-1,-1,-1,-1,-1,-1,-1,-1,-1,-1,-1,-1,-1,-1,-1,-1,-1,-1,-1,-1,-1,-1,-1,-1,-1,-1,-1,-1,-1,-1,-1,-1],"split_conditions":[3.067422E7,-9.979569E-1,-1.6978515E0,3.026E1,-1.480473E-1,4.2906734E1,1.14423065E1,-7.2429407E-1,-0E0,4.5432683E-2,-3.026528E-1,2.0012436E0,-0E0,1.2970167E0,-1.1823826E0,-6.889474E-1,-1.2848147E0,2.629005E6,7.676225E0,4.15816E-1,1.2105733E0,-3.5026038E-1,-0E0,7.848E1,2.4109929E0,-1.3382215E0,1.4939294E0,-0E0,8.3433497E-1,-0E0,-1.312416E0,-1.1494272E0,3.1059962E7,4.63918E-1,3.2077346E-2,-1.7601982E0,-2.6085341E-2,2.992E1,-1.4070305E0,-0E0,7.3215306E-1,2.33766E-1,2.992E1,-1.6466393E0,-0E0,-9.990757E-2,-9.7345036E-1,4.11E1,4.54545E-1,2.33657E-2,-0E0,-0E0,7.2449774E-1,-0E0,-1.2985694E0,1.388432E0,-5.677512E-1,3.024E1,-0E0,2.624632E-1,-9.034596E-2,-0E0,6.8485105E-1,2.5820032E6,2.9513065E-2,-1.2469787E-2,-1.3348114E-1,-0E0,-3.6228156E-1,3.319296E-1,-0E0,2.03647E-1,-1.3272184E0,6.0797805E-1,3.333E-1,-0E0,9.460235E-1,-0E0,2.37854E-1,-0E0,-2.39985E-1,-1.4121626E-2,-5.7674408E-2,2.97E1,4.80565E-1,-1.313457E-1,-0E0,-0E0,3.2310345E0,7.05E1,-0E0,1.1755971E0,6.410662E-1,-1.2677512E0,-0E0,-0E0,1.073397E0,-0E0,1.7792E6,-3.9948627E-2,-0E0,-0E0,-1.5515101E0,6.3639665E-1,-0E0,-0E0,-6.8545365E-1,8.874723E-1,-9.983452E-1,-0E0,-1.1131302E0,-2.666668E0,-0E0,7.576711E-3,6.999098E-1,-2.8518068E-2,7.18484E7,-6.688967E-1,-0E0,3E1,3.31711E7,-5.433432E-1,-0E0,-1.9340506E-1,-0E0,-0E0,1.1617749E0,3.0000802E-2,5.149609E-2,-5.0922916E-3,2.2791141E-1,-0E0,1.8757833E0,1.8150553E1,-0E0,-0E0,-5.7201606E-1,-0E0,-4.5828146E-1,4.0481538E-1,-0E0,-4.0534273E-1,-0E0,2.5640658E-1,-0E0,-0E0,-3.983977E-1,4.6042946E-1,-0E0,-0E0,-1.00146435E-1,-0E0,-3.9380282E-1,-0E0,-3.5030684E-1,2.8224766E-1,-0E0,-0E0,3.339493E-1,1.3510118E-1,-8.3020724E-2,-0E0,-4.0025547E-1,-0E0,-4.997283E-1,-0E0,4.5331305E-1,-1.5110698E-1,-0E0,2.5731334E-1,-0E0,-0E0,1.5742803E-1,-5.868469E-2,-3.5248473E-1,-0E0,4.6668652E-1,8.931172E-3,-0E0,-0E0,-1.8317819E-1,-0E0,3.20493E-1,-6.3080436E-1,-0E0,-0E0,2.413886E-1,-3.1564167E-1,-0E0,-2.0816773E-2,2.6883587E-1,3.66127E-1,-0E0,-3.3841342E-1,-0E0,-0E0,6.838909E-2],"split_indices":[26,4,31,43,4,20,20,16,0,0,33,33,0,30,4,25,11,27,20,22,14,1,0,44,1,31,31,0,29,0,6,19,28,21,39,10,37,43,0,0,11,21,43,37,0,37,0,23,21,0,0,0,7,0,17,18,16,43,0,19,38,0,40,28,41,38,18,0,36,36,0,21,13,19,21,0,19,0,11,0,19,0,16,43,21,42,0,0,20,23,0,14,9,9,0,0,3,0,26,42,0,0,14,3,0,0,9,11,25,0,1,3,0,11,30,40,27,4,0,43,26,0,0,38,0,0,7,38,42,37,37,0,3,20,0,0,0,0,0,0,0,0,0,0,0,0,0,0,0,0,0,0,0,0,0,0,0,0,0,0,0,0,0,0,0,0,0,0,0,0,0,0,0,0,0,0,0,0,0,0,0,0,0,0,0,0,0,0,0,0,0,0,0,0,0,0,0],"split_type":[0,0,0,0,0,0,0,0,0,0,0,0,0,0,0,0,0,0,0,0,0,0,0,0,0,0,0,0,0,0,0,0,0,0,0,0,0,0,0,0,0,0,0,0,0,0,0,0,0,0,0,0,0,0,0,0,0,0,0,0,0,0,0,0,0,0,0,0,0,0,0,0,0,0,0,0,0,0,0,0,0,0,0,0,0,0,0,0,0,0,0,0,0,0,0,0,0,0,0,0,0,0,0,0,0,0,0,0,0,0,0,0,0,0,0,0,0,0,0,0,0,0,0,0,0,0,0,0,0,0,0,0,0,0,0,0,0,0,0,0,0,0,0,0,0,0,0,0,0,0,0,0,0,0,0,0,0,0,0,0,0,0,0,0,0,0,0,0,0,0,0,0,0,0,0,0,0,0,0,0,0,0,0,0,0,0,0,0,0,0,0,0,0,0,0,0,0],"sum_hessian":[2.0130846E3,9.330854E2,1.0799993E3,1.2495057E2,8.081348E2,1.04269135E2,9.757301E2,1.1721284E2,7.7377267E0,3.040205E2,5.0411432E2,1.01393715E2,2.8754182E0,5.552895E2,4.204406E2,1.1725553E1,1.0548729E2,2.1795029E2,8.607022E1,1.8993665E2,3.1417767E2,9.261359E1,8.780129E0,5.1906445E2,3.6225033E1,6.3663097E1,3.567775E2,3.2730734E0,8.452479E0,1.3288864E1,9.2198425E1,3.281278E1,1.8513751E2,4.8755257E1,3.731497E1,1.4796997E2,4.1966667E1,2.7022464E2,4.3953026E1,5.37603E0,8.723756E1,4.5291528E2,6.6149155E1,3.1091982E1,5.1330495E0,2.609999E1,3.7563107E1,3.1333356E2,4.3443928E1,6.9242706E0,1.528209E0,7.9782033E0,8.422022E1,9.0044E0,2.3808378E1,1.3985573E2,4.5281776E1,4.1624622E1,7.1306334E0,2.6187298E1,1.1127671E1,1.4394094E0,1.4653056E2,2.3744179E1,1.8222486E1,8.741417E1,1.8281047E2,4.104939E0,3.9848087E1,8.365295E1,3.5846086E0,9.848935E1,3.5442593E2,3.9627472E1,2.652168E1,1.0861627E0,3.000582E1,5.562519E0,2.0537472E1,1.1455499E1,2.6107607E1,4.8566376E1,2.6476718E2,3.1877554E1,1.1566374E1,7.612572E1,8.0945E0,2.632511E0,2.1175867E1,1.2951617E2,1.0339566E1,2.3677145E1,2.1604631E1,3.8825203E1,2.7994177E0,3.337868E0,2.284943E1,1.9701003E0,9.157571E0,1.4318553E2,3.3450396E0,3.7905853E0,1.9953594E1,1.2416981E1,5.805506E0,1.39510355E1,7.3463135E1,1.1485929E2,6.795118E1,5.974316E0,3.387377E1,8.2052414E1,1.600532E0,3.320253E1,6.528682E1,5.7380466E1,2.9704547E2,3.651484E1,3.112631E0,1.4274865E1,1.2246815E1,2.678343E1,3.2223897E0,1.8382835E1,2.154638E0,5.7862153E0,2.0321392E1,2.6738264E1,2.1828112E1,1.3240761E2,1.3235959E2,4.4731064E0,2.7404448E1,9.777255E0,1.7891188E0,6.926013E0,6.919971E1,1.193274E0,1.9982594E1,1.1027686E2,1.9239305E1,1.9942688E1,3.7344568E0,1.9309263E1,2.2953682E0,1.3554024E0,3.7469803E1,1.9641577E1,3.2078538E0,1.1680906E0,7.98948E0,2.0802174E1,1.22383354E2,1.6624339E0,1.829116E1,1.0472094E1,1.9448868E0,1.3889533E1,5.95736E1,9.5083466E1,1.9775824E1,2.728582E1,4.0665356E1,1.1817482E0,3.269202E1,1.226063E0,8.082635E1,1.9084482E1,1.4118047E1,5.6211536E1,9.075285E0,2.2253296E1,3.512717E1,2.1010435E2,8.6941124E1,1.3084768E0,3.5206364E1,1.2595135E1,1.6797304E0,1.5657035E0,1.0681111E1,1.2066821E0,1.7176153E1,1.9087614E1,1.233778E0,1.0097656E1,1.664061E1,1.7244274E1,4.583837E0,7.798264E1,5.4424973E1,1.2451709E2,7.8424897E0,2.0934008E1,6.4704404E0,1.1638191E0,8.613437E0],"tree_param":{"num_deleted":"0","num_feature":"45","num_nodes":"197","size_leaf_vector":"1"}},{"base_weights":[-3.2981776E-2,-5.1338483E-2,6.183263E-1,-4.217684E-1,-1.7467126E-2,7.928351E-1,-0E0,-0E0,-5.0740844E-1,-2.1435353E-1,2.7837293E-2,8.733771E-1,-0E0,-0E0,2.2424148E-2,-0E0,-6.1888134E-1,-5.7906527E-2,-5.1740575E-1,-1.0112262E-2,2.1982752E-1,-0E0,9.515619E-1,-0E0,9.5024005E-2,1.19319014E-1,-0E0,-6.9573426E-1,-0E0,-4.0640062E-1,5.036551E-2,-0E0,-7.620585E-1,2.0636028E-2,-1.9080578E-1,-0E0,3.8595164E-1,9.7567457E-1,-0E0,-0E0,4.900654E-1,-8.199158E-1,-0E0,-0E0,-5.2001363E-1,2.854816E-1,-3.787321E-1,3.4463063E-1,-0E0,-0E0,-9.009567E-1,2.387077E-1,-8.0896355E-2,-5.1728654E-1,1.1901251E-1,-2.1361904E-1,1.7400275E-1,-0E0,4.5581403E-1,-0E0,4.88684E-1,-0E0,3.2243574E-1,-0E0,-8.7072235E-1,-6.586579E-1,-0E0,5.2179784E-1,-0E0,-0E0,-7.0212674E-1,4.2590255E-1,-0E0,-0E0,-5.7806473E-2,-9.732096E-1,-0E0,3.2920757E-1,-4.224542E-2,-2.805871E-1,2.7356438E-2,-0E0,-5.880531E-1,4.2796314E-1,-0E0,-0E0,-5.9683275E-1,4.0915683E-1,-0E0,5.4160935E-1,-0E0,-0E0,-4.3510538E-1,-3.8759607E-1,-0E0,3.116609E-1,-0E0,9.690515E-2,-9.8937586E-2,-0E0,4.2897947E-2,-4.4265574E-1,-0E0,2.3594828E-1,-0E0,-0E0,-5.079246E-1,2.3073141E-1,-0E0,-0E0,-2.3649758E-1,-1.9904055E-1,5.9754003E-2,1.108793E-1,-4.0864326E-2,-3.1292617E-1,-0E0,2.9440847E-1,-0E0,-0E0,-2.5650758E-1,-0E0,1.1530286E-1,-3.3662394E-1,-0E0,2.8256467E-1,-0E0,-0E0,-7.938476E-2,-0E0,2.8622687E-1],"categories":[],"categories_nodes":[],"categories_segments":[],"categories_sizes":[],"default_left":[0,0,0,0,0,0,0,0,0,0,0,0,0,0,0,0,0,0,0,0,0,0,0,0,0,0,0,0,0,0,0,0,0,0,0,0,0,0,0,0,0,0,0,0,0,0,0,0,0,0,0,0,0,0,0,0,0,0,0,0,0,0,0,0,0,0,0,0,0,0,0,0,0,0,0,0,0,0,0,0,0,0,0,0,0,0,0,0,0,0,0,0,0,0,0,0,0,0,0,0,0,0,0,0,0,0,0,0,0,0,0,0,0,0,0,0,0,0,0,0,0,0,0,0,0,0,0,0,0,0,0],"id":4,"left_children":[1,3,5,7,9,11,-1,13,15,17,19,21,-1,-1,23,25,27,29,31,33,35,-1,37,-1,-1,39,-1,41,-1,43,45,47,49,51,53,55,57,59,-1,-1,61,63,-1,-1,65,67,69,71,73,-1,75,77,79,81,83,85,87,-1,89,-1,-1,-1,-1,-1,91,93,-1,95,97,99,101,103,-1,-1,-1,105,-1,107,109,111,113,-1,115,117,119,121,123,125,127,129,-1,-1,-1,-1,-1,-1,-1,-1,-1,-1,-1,-1,-1,-1,-1,-1,-1,-1,-1,-1,-1,-1,-1,-1,-1,-1,-1,-1,-1,-1,-1,-1,-1,-1,-1,-1,-1,-1,-1,-1,-1],"loss_changes":[1.6905127E1,1.8815878E1,4.696913E0,6.763609E0,1.721744E1,2.772728E0,0E0,5.0559896E-3,8.8943615E0,1.1446554E1,1.1994164E1,3.0468235E0,0E0,0E0,2.9916707E-1,1.4589047E-1,7.574505E0,1.3467392E1,1.8672663E1,7.767398E0,1.1182054E1,0E0,1.00364685E-1,0E0,0E0,1.8388596E0,0E0,5.601906E0,0E0,6.9753675E0,1.7184359E1,1.5962104E0,9.861698E0,2.1207342E1,2.487038E1,4.1307554E0,6.4085426E0,6.2690735E-2,0E0,0E0,1.1581631E0,4.5070267E0,0E0,0E0,8.646654E0,1.05048275E1,9.559334E0,3.3262455E-1,1.287468E-1,0E0,6.9049873E0,1.0835995E1,1.4940288E1,6.8238564E0,6.53701E0,9.837938E0,3.8368993E0,0E0,7.300743E0,0E0,0E0,0E0,0E0,0E0,1.8480492E0,7.9715614E0,0E0,8.901865E0,2.2164927E0,9.985076E-2,6.272545E0,3.053434E-1,0E0,0E0,0E0,6.1978035E0,0E0,1.2326954E1,5.120182E0,1.493096E1,9.011628E0,0E0,6.078457E0,5.6224637E0,3.1734726E0,1.0116906E0,3.2827225E0,4.433515E0,3.0207154E-1,5.3003883E0,0E0,0E0,0E0,0E0,0E0,0E0,0E0,0E0,0E0,0E0,0E0,0E0,0E0,0E0,0E0,0E0,0E0,0E0,0E0,0E0,0E0,0E0,0E0,0E0,0E0,0E0,0E0,0E0,0E0,0E0,0E0,0E0,0E0,0E0,0E0,0E0,0E0,0E0,0E0,0E0,0E0],"parents":[2147483647,0,0,1,1,2,2,3,3,4,4,5,5,7,7,8,8,9,9,10,10,11,11,14,14,15,15,16,16,17,17,18,18,19,19,20,20,22,22,25,25,27,27,29,29,30,30,31,31,32,32,33,33,34,34,35,35,36,36,37,37,40,40,41,41,44,44,45,45,46,46,47,47,48,48,50,50,51,51,52,52,53,53,54,54,55,55,56,56,58,58,64,64,65,65,67,67,68,68,69,69,70,70,71,71,75,75,77,77,78,78,79,79,80,80,82,82,83,83,84,84,85,85,86,86,87,87,88,88,89,89],"right_children":[2,4,6,8,10,12,-1,14,16,18,20,22,-1,-1,24,26,28,30,32,34,36,-1,38,-1,-1,40,-1,42,-1,44,46,48,50,52,54,56,58,60,-1,-1,62,64,-1,-1,66,68,70,72,74,-1,76,78,80,82,84,86,88,-1,90,-1,-1,-1,-1,-1,92,94,-1,96,98,100,102,104,-1,-1,-1,106,-1,108,110,112,114,-1,116,118,120,122,124,126,128,130,-1,-1,-1,-1,-1,-1,-1,-1,-1,-1,-1,-1,-1,-1,-1,-1,-1,-1,-1,-1,-1,-1,-1,-1,-1,-1,-1,-1,-1,-1,-1,-1,-1,-1,-1,-1,-1,-1,-1,-1,-1],"split_conditions":[3.034E1,3.62E1,3.609781E-2,3.734527E0,5.0466084E0,7.973949E-2,-0E0,3.4472E-1,-1.3031943E0,4.1364318E-1,5.559656E-1,-1.3507523E-1,-0E0,-0E0,-4.2565206E-1,2.4388456E-1,1.2957116E8,1.873872E7,2.8481965E0,9.1359603E-1,3.0009196E7,-0E0,1.0645779E0,-0E0,9.5024005E-2,-3.4632415E-1,-0E0,4.6875E-1,-0E0,-1.90948E0,7.234173E7,-3.3154252E-1,-1.1494272E0,-8.427098E-2,1.7793417E1,4.1408607E-1,-1.5168288E0,4.449534E0,-0E0,-0E0,-1.2173486E0,1.9382E-1,-0E0,-0E0,4.415512E-1,3.8880553E0,-6.688967E-1,1.0643983E0,2.0022416E7,-0E0,8.67E1,9.149333E-1,3E1,5.3895054E0,8.9878577E-1,-5.8981318E-2,1.2586806E0,-0E0,9.992635E-1,-0E0,4.88684E-1,-0E0,3.2243574E-1,-0E0,-9.0814674E-1,1.1333334E0,-0E0,-8.493622E-2,-1.1181039E0,-9.34068E-1,3.6133793E-1,4.7856963E-1,-0E0,-0E0,-5.7806473E-2,-6.786588E-1,-0E0,6.934E1,-3.923853E-1,7.62E1,-2.9530933E-1,-0E0,5.03876E-1,2.0273755E0,1.4917655E0,2.6934171E-2,3.3632582E-1,1.551025E0,2.528071E-3,2.36467E-1,-0E0,-0E0,-4.3510538E-1,-3.8759607E-1,-0E0,3.116609E-1,-0E0,9.690515E-2,-9.8937586E-2,-0E0,4.2897947E-2,-4.4265574E-1,-0E0,2.3594828E-1,-0E0,-0E0,-5.079246E-1,2.3073141E-1,-0E0,-0E0,-2.3649758E-1,-1.9904055E-1,5.9754003E-2,1.108793E-1,-4.0864326E-2,-3.1292617E-1,-0E0,2.9440847E-1,-0E0,-0E0,-2.5650758E-1,-0E0,1.1530286E-1,-3.3662394E-1,-0E0,2.8256467E-1,-0E0,-0E0,-7.938476E-2,-0E0,2.8622687E-1],"split_indices":[43,23,29,20,20,35,0,22,29,31,33,40,0,0,34,33,28,26,20,2,28,0,32,0,0,11,0,22,0,8,28,6,19,18,20,10,10,20,0,0,17,21,0,0,4,20,4,17,27,0,23,11,24,20,17,35,1,0,4,0,0,0,0,0,38,3,0,16,13,2,2,2,0,0,0,40,0,44,34,44,29,0,22,8,11,39,41,16,36,22,0,0,0,0,0,0,0,0,0,0,0,0,0,0,0,0,0,0,0,0,0,0,0,0,0,0,0,0,0,0,0,0,0,0,0,0,0,0,0,0,0],"split_type":[0,0,0,0,0,0,0,0,0,0,0,0,0,0,0,0,0,0,0,0,0,0,0,0,0,0,0,0,0,0,0,0,0,0,0,0,0,0,0,0,0,0,0,0,0,0,0,0,0,0,0,0,0,0,0,0,0,0,0,0,0,0,0,0,0,0,0,0,0,0,0,0,0,0,0,0,0,0,0,0,0,0,0,0,0,0,0,0,0,0,0,0,0,0,0,0,0,0,0,0,0,0,0,0,0,0,0,0,0,0,0,0,0,0,0,0,0,0,0,0,0,0,0,0,0,0,0,0,0,0,0],"sum_hessian":[1.8854943E3,1.8494042E3,3.6090107E1,1.2949574E2,1.7199084E3,2.9133957E1,6.95615E0,1.3981655E1,1.15514084E2,3.6250168E2,1.3574067E3,2.7513344E1,1.6206115E0,4.6655207E0,9.316134E0,1.4885261E1,1.0062882E2,2.6142282E2,1.0107887E2,1.0904733E3,2.669335E2,1.0870007E0,2.6426344E1,2.0399394E0,7.2761946E0,9.508572E0,5.3766894E0,9.5119316E1,5.5095096E0,8.337868E1,1.7804413E2,2.2727688E1,7.835119E1,8.8515924E2,2.0531396E2,1.0576768E2,1.6116583E2,2.5205662E1,1.2206829E0,1.9831154E0,7.525456E0,7.66145E1,1.8504812E1,6.945692E0,7.643298E1,1.302358E2,4.780834E1,1.2700792E1,1.0026896E1,1.0357291E1,6.79939E1,3.1217062E2,5.7298865E2,1.1544378E2,8.9870186E1,5.6808475E1,4.8959198E1,1.4981736E1,1.461841E2,1.2800297E0,2.392563E1,1.0726724E0,6.4527836E0,2.8190284E0,7.379547E1,6.729477E1,9.13822E0,7.704801E1,5.3187782E1,1.5030946E1,3.2777393E1,9.894774E0,2.8060176E0,1.6001058E0,8.426791E0,6.5457436E1,2.5364559E0,2.629395E2,4.923111E1,2.3348538E2,3.3950327E2,6.5472007E0,1.0889658E2,4.196012E1,4.791006E1,2.2556519E1,3.4251957E1,3.116874E1,1.779046E1,1.2821162E2,1.7972477E1,1.2055979E0,7.2589874E1,5.862052E1,8.674246E0,7.293297E1,4.115042E0,1.8912766E1,3.4275017E1,2.8618991E0,1.2169046E1,2.6936205E1,5.841189E0,8.80807E0,1.0867041E0,2.669143E0,6.2788296E1,1.8203827E2,8.0901245E1,2.7813217E1,2.141789E1,1.9621886E2,3.7266518E1,1.531464E2,1.8635687E2,1.0613039E2,2.7661939E0,3.615589E1,5.804233E0,3.717498E1,1.0735079E1,5.1926804E0,1.7363838E1,3.231893E1,1.9330277E0,2.8385769E1,2.7829695E0,7.126461E0,1.06640005E1,3.72344E0,1.2448818E2],"tree_param":{"num_deleted":"0","num_feature":"45","num_nodes":"131","size_leaf_vector":"1"}},{"base_weights":[-1.649709E-2,-4.6834886E-1,-0E0,-7.637313E-1,-0E0,1.598159E-1,-3.810889E-2,-0E0,-9.2316407E-1,-8.787689E-2,-0E0,-1.5993658E-1,2.3688741E-1,1.1423771E-2,-1.9811773E-1,-1.0057323E0,-0E0,-0E0,-2.404616E-1,-0E0,1.6525832E-1,-0E0,-4.3069044E-1,-1.14327386E-1,3.015321E-1,-1.7575221E-1,5.4342348E-2,-5.5663335E-1,-4.4062722E-2,-0E0,-1.0740513E0,-0E0,-1.5364213E-1,2.801868E-1,-0E0,-7.250189E-1,-0E0,-0E0,-3.1753272E-1,3.821709E-1,-0E0,-3.1748372E-1,2.3945321E-1,1.0642446E-1,-2.2440073E-1,-0E0,-7.7170736E-1,-1.6325374E-1,1.499123E-1,-0E0,-5.357127E-1,-0E0,1.5355445E-1,-8.825767E-1,-0E0,-0E0,5.0854635E-1,1.6289958E-1,-1.0492093E-1,-0E0,-5.420644E-1,-0E0,3.846442E-1,-2.2804458E-1,1.4411974E-1,-5.994631E-1,-0E0,-8.485703E-1,-0E0,-2.3840149E-1,-0E0,4.2547667E-1,-0E0,-9.739941E-1,-0E0,3.1915772E-1,-2.340643E-2,6.2029314E-1,-0E0,-0E0,3.844123E-1,-3.64199E-1,-0E0,4.9248893E-2,-7.524095E-2,-0E0,-6.763967E-1,-0E0,5.3299135E-1,-0E0,-4.5182642E-1,2.1047601E-1,-2.639386E-2,-0E0,-7.032287E-1,2.2357656E-1,-2.7297696E-1,-0E0,-9.1246754E-1,-0E0,-3.3879063E-1,3.28768E-1,-0E0,-0E0,5.3529453E-1,-0E0,-3.5972023E-1,-5.1618326E-1,-0E0,-0E0,2.3319213E-1,-0E0,-1.3830355E-1,-0E0,3.6648035E-1,2.859454E-1,-0E0,-0E0,-3.133878E-1,1.6440319E-1,-0E0,-0E0,-1.5171817E-1,-0E0,-3.9948893E-1,2.9884183E-1,-0E0,-0E0,-3.1375495E-1,-9.850551E-3,1.2407398E-1,-1.3075176E-1,2.2375725E-2,-0E0,-3.8536507E-1,1.9463593E-1,-0E0,-2.3868103E-1,-0E0,-0E0,-4.7076133E-1,1.2398565E-1,-1.3525246E-1,-0E0,-2.31096E-1,2.740466E-1,-0E0,3.1301227E-1,-0E0,1.0406629E-1,-0E0,-2.402339E-1,-0E0],"categories":[],"categories_nodes":[],"categories_segments":[],"categories_sizes":[],"default_left":[0,0,0,0,0,0,0,0,0,0,0,0,0,0,0,0,0,0,0,0,0,0,0,0,0,0,0,0,0,0,0,0,0,0,0,0,0,0,0,0,0,0,0,0,0,0,0,0,0,0,0,0,0,0,0,0,0,0,0,0,0,0,0,0,0,0,0,0,0,0,0,0,0,0,0,0,0,0,0,0,0,0,0,0,0,0,0,0,0,0,0,0,0,0,0,0,0,0,0,0,0,0,0,0,0,0,0,0,0,0,0,0,0,0,0,0,0,0,0,0,0,0,0,0,0,0,0,0,0,0,0,0,0,0,0,0,0,0,0,0,0,0,0,0,0,0,0,0,0,0,0,0,0],"id":5,"left_children":[1,3,5,7,9,11,13,-1,15,17,19,21,23,25,27,29,-1,-1,31,-1,33,-1,35,37,39,41,43,45,47,-1,49,-1,-1,51,-1,53,-1,-1,-1,55,57,59,61,63,65,-1,67,69,71,-1,-1,-1,-1,73,-1,75,77,79,81,83,85,-1,87,89,91,93,95,97,-1,99,101,103,105,107,-1,109,111,113,-1,-1,115,117,-1,119,121,-1,123,-1,125,-1,127,129,131,-1,133,135,137,-1,139,141,143,145,-1,-1,147,149,151,-1,-1,-1,-1,-1,-1,-1,-1,-1,-1,-1,-1,-1,-1,-1,-1,-1,-1,-1,-1,-1,-1,-1,-1,-1,-1,-1,-1,-1,-1,-1,-1,-1,-1,-1,-1,-1,-1,-1,-1,-1,-1,-1,-1,-1,-1],"loss_changes":[1.4919951E1,8.198279E0,1.09239235E1,7.000454E0,1.14328474E-1,9.404632E0,1.2801849E1,0E0,3.9722939E0,6.338675E-1,3.751419E-1,4.924845E0,8.865999E0,6.877375E0,1.4623157E1,1.7907524E0,0E0,0E0,3.550421E-1,0E0,5.631443E-1,0E0,6.4897757E0,5.9157505E0,6.875046E0,9.335611E0,1.1361751E1,1.315336E1,6.6667476E0,0E0,4.528427E-1,0E0,0E0,1.3742256E-1,0E0,4.407626E0,0E0,0E0,0E0,5.8709145E0,1.0522094E0,8.561017E0,1.2690675E0,8.736646E0,1.1687586E1,0E0,7.0101013E0,4.8815904E0,5.6764574E0,0E0,0E0,0E0,0E0,2.6636677E0,0E0,3.4325018E0,1.0559399E1,2.5751457E0,3.2153575E0,2.242007E-1,7.64266E0,0E0,1.8672776E0,5.7243934E0,9.857716E0,5.549263E0,3.4294279E0,4.477524E0,0E0,5.3502827E0,1.552426E0,3.5221548E0,1.5857617E0,2.2304955E0,0E0,2.3089163E0,2.255554E0,8.1021385E0,0E0,0E0,3.6557417E0,3.8561213E0,0E0,2.145387E0,1.8767008E0,0E0,7.43993E0,0E0,8.5730267E-1,0E0,6.8907347E0,7.9378586E0,4.970343E0,0E0,4.690756E0,3.361996E0,2.3326433E0,0E0,4.0945625E0,3.2599707E0,8.818183E0,2.1869488E0,0E0,0E0,3.7510948E0,8.4019077E-1,1.0487827E0,0E0,0E0,0E0,0E0,0E0,0E0,0E0,0E0,0E0,0E0,0E0,0E0,0E0,0E0,0E0,0E0,0E0,0E0,0E0,0E0,0E0,0E0,0E0,0E0,0E0,0E0,0E0,0E0,0E0,0E0,0E0,0E0,0E0,0E0,0E0,0E0,0E0,0E0,0E0,0E0,0E0,0E0,0E0,0E0,0E0,0E0],"parents":[2147483647,0,0,1,1,2,2,3,3,4,4,5,5,6,6,8,8,9,9,10,10,11,11,12,12,13,13,14,14,15,15,18,18,20,20,22,22,23,23,24,24,25,25,26,26,27,27,28,28,30,30,33,33,35,35,39,39,40,40,41,41,42,42,43,43,44,44,46,46,47,47,48,48,53,53,55,55,56,56,57,57,58,58,59,59,60,60,62,62,63,63,64,64,65,65,66,66,67,67,69,69,70,70,71,71,72,72,73,73,75,75,76,76,77,77,80,80,81,81,83,83,84,84,86,86,88,88,90,90,91,91,92,92,94,94,95,95,96,96,98,98,99,99,100,100,101,101,104,104,105,105,106,106],"right_children":[2,4,6,8,10,12,14,-1,16,18,20,22,24,26,28,30,-1,-1,32,-1,34,-1,36,38,40,42,44,46,48,-1,50,-1,-1,52,-1,54,-1,-1,-1,56,58,60,62,64,66,-1,68,70,72,-1,-1,-1,-1,74,-1,76,78,80,82,84,86,-1,88,90,92,94,96,98,-1,100,102,104,106,108,-1,110,112,114,-1,-1,116,118,-1,120,122,-1,124,-1,126,-1,128,130,132,-1,134,136,138,-1,140,142,144,146,-1,-1,148,150,152,-1,-1,-1,-1,-1,-1,-1,-1,-1,-1,-1,-1,-1,-1,-1,-1,-1,-1,-1,-1,-1,-1,-1,-1,-1,-1,-1,-1,-1,-1,-1,-1,-1,-1,-1,-1,-1,-1,-1,-1,-1,-1,-1,-1,-1,-1],"split_conditions":[-1.1696637E0,1.2725917E1,-9.085341E-1,-1.5367669E0,4.8298272E-1,-1.0563005E0,8.0388194E-1,-0E0,1.18959524E-1,-6.078124E-2,-7.1142614E-1,-1.3362414E0,3.7773E6,-1.4585526E0,5.851693E0,-5.7522852E-2,-0E0,-0E0,-1.141441E0,-0E0,3.5182945E-2,-0E0,4.4487126E-2,-1.084374E0,7.3134094E-1,1.2114121E0,1.2765697E0,2.42991E-1,6.592314E7,-0E0,-8.2730584E-2,-0E0,-1.5364213E-1,-1.1359095E-1,-0E0,7.96E1,-0E0,-0E0,-3.1753272E-1,-1.2641077E0,3.448E-1,-1.5655395E0,8.091143E0,-7.7340966E-1,1.5631517E1,-0E0,2.6449647E0,1.4753398E0,5.99E1,-0E0,-5.357127E-1,-0E0,1.5355445E-1,-1.828846E-1,-0E0,-1.5457416E0,8.25905E-1,4.481276E0,1.3287841E0,-3.8017452E-1,2.89578E6,-0E0,-8.9722234E-1,-8.264314E-1,3.644801E-1,-9.785801E-1,2.0327654E0,2.3985639E0,-0E0,-6.964063E-1,3.31731E-1,-5.219832E-1,-1.5431431E-1,1.9444841E0,-0E0,4.02E1,-4.6677202E-1,-1.453362E0,-0E0,-0E0,6.959593E-1,1.0587168E0,-0E0,5.519659E-1,-1.5850459E0,-0E0,-1.2146412E0,-0E0,2.642641E-1,-0E0,-1.1345017E0,-1.1113737E0,7.3499125E-1,-0E0,-1.7102191E0,1.866209E0,7.469326E7,-0E0,-4.4851843E-1,-9.609719E-2,-6.716652E-1,3.9910857E-2,-0E0,-0E0,1.3801471E0,7.505754E-1,1.7393464E-1,-5.1618326E-1,-0E0,-0E0,2.3319213E-1,-0E0,-1.3830355E-1,-0E0,3.6648035E-1,2.859454E-1,-0E0,-0E0,-3.133878E-1,1.6440319E-1,-0E0,-0E0,-1.5171817E-1,-0E0,-3.9948893E-1,2.9884183E-1,-0E0,-0E0,-3.1375495E-1,-9.850551E-3,1.2407398E-1,-1.3075176E-1,2.2375725E-2,-0E0,-3.8536507E-1,1.9463593E-1,-0E0,-2.3868103E-1,-0E0,-0E0,-4.7076133E-1,1.2398565E-1,-1.3525246E-1,-0E0,-2.31096E-1,2.740466E-1,-0E0,3.1301227E-1,-0E0,1.0406629E-1,-0E0,-2.402339E-1,-0E0],"split_indices":[33,20,12,14,15,25,10,0,37,40,10,30,26,14,20,39,0,0,10,0,42,0,40,11,9,8,6,22,26,0,38,0,0,42,0,23,0,0,0,19,22,25,20,12,20,0,1,19,23,0,0,0,0,5,0,19,29,20,10,6,26,0,16,32,30,33,12,20,0,16,21,16,18,16,0,23,31,11,0,0,2,9,0,16,17,0,11,0,31,0,7,16,30,0,10,31,26,0,40,4,1,36,0,0,14,0,35,0,0,0,0,0,0,0,0,0,0,0,0,0,0,0,0,0,0,0,0,0,0,0,0,0,0,0,0,0,0,0,0,0,0,0,0,0,0,0,0,0,0,0,0,0,0],"split_type":[0,0,0,0,0,0,0,0,0,0,0,0,0,0,0,0,0,0,0,0,0,0,0,0,0,0,0,0,0,0,0,0,0,0,0,0,0,0,0,0,0,0,0,0,0,0,0,0,0,0,0,0,0,0,0,0,0,0,0,0,0,0,0,0,0,0,0,0,0,0,0,0,0,0,0,0,0,0,0,0,0,0,0,0,0,0,0,0,0,0,0,0,0,0,0,0,0,0,0,0,0,0,0,0,0,0,0,0,0,0,0,0,0,0,0,0,0,0,0,0,0,0,0,0,0,0,0,0,0,0,0,0,0,0,0,0,0,0,0,0,0,0,0,0,0,0,0,0,0,0,0,0,0],"sum_hessian":[1.7967672E3,6.951025E1,1.727257E3,3.973451E1,2.977574E1,3.4852295E2,1.378734E3,4.5582223E0,3.517629E1,1.4066197E1,1.5709541E1,4.2336105E1,3.0618683E2,1.00562134E3,3.7311273E2,3.344842E1,1.7278656E0,1.8651915E0,1.2201006E1,2.711953E0,1.2997588E1,1.05849085E1,3.1751196E1,2.3461403E1,2.8272543E2,1.436875E2,8.6193384E2,9.205074E1,2.8106198E2,2.658531E0,3.0789892E1,1.8218573E0,1.03791485E1,1.1213299E1,1.7842898E0,2.3072601E1,8.678595E0,9.496394E0,1.3965009E1,2.2279456E2,5.9930885E1,1.2520631E2,1.8481201E1,7.56851E2,1.0508282E2,2.2426657E1,6.962409E1,2.0609418E2,7.496781E1,1.0049713E0,2.978492E1,1.0991948E0,1.0114104E1,2.0988346E1,2.0842555E0,7.4592445E1,1.482021E2,2.3488886E1,3.6441998E1,5.3605618E1,7.1600685E1,3.1936908E0,1.528751E1,4.941124E1,7.0743976E2,4.6613525E1,5.8469296E1,6.718984E1,2.4342434E0,1.8214171E2,2.395248E1,4.0016136E1,3.495167E1,1.990903E1,1.0793147E0,3.272987E1,4.1862576E1,1.26815926E2,2.1386179E1,2.450523E0,2.1038363E1,2.6588156E1,9.853843E0,2.6344751E1,2.7260866E1,9.1751585E0,6.242553E1,1.1065439E0,1.4180966E1,9.334229E0,4.007701E1,5.5135156E2,1.560882E2,1.7219399E0,4.4891582E1,4.155995E1,1.6909342E1,3.8027568E0,6.338709E1,4.5709587E1,1.3643211E2,1.3623875E1,1.0328605E1,2.7147334E0,3.7301403E1,2.3435501E1,1.15161705E1,1.8741074E1,1.1679573E0,8.453938E0,2.4275932E1,1.4259361E1,2.7603216E1,2.6275906E1,1.00540016E2,1.926003E1,1.7783319E0,9.207008E0,1.7381147E1,1.8721855E1,7.6228976E0,6.9663153E0,2.029455E1,8.998152E0,5.342738E1,1.2834772E1,1.3461937E0,4.0286727E0,3.6048336E1,5.1816383E1,4.995352E2,6.7321526E1,8.876667E1,1.9692336E0,4.292235E1,3.365013E1,7.9098234E0,1.449329E1,2.4160511E0,2.419653E0,6.0967434E1,2.9285955E1,1.6423634E1,2.7760147E1,1.0867197E2,1.110595E1,2.5179243E0,3.4834225E1,2.4671774E0,1.7716965E1,5.7185364E0,1.0120782E1,1.395388E0],"tree_param":{"num_deleted":"0","num_feature":"45","num_nodes":"153","size_leaf_vector":"1"}},{"base_weights":[-1.04143E-2,-1.4205223E-1,1.6666532E-2,-0E0,-4.597012E-1,5.6996673E-2,-1.461251E-1,7.005461E-2,-2.8721234E-1,-5.3880364E-1,-0E0,1.4397773E-1,-4.8368152E-2,3.6742628E-2,-3.3459488E-1,-2.2466502E-1,1.978355E-1,-4.1226706E-1,-0E0,-0E0,-5.9516305E-1,2.0608743E-1,-1.5563197E-2,6.143098E-2,-3.3266166E-1,4.1371214E-1,-6.898615E-2,-7.615271E-1,-0E0,-0E0,-3.547761E-1,-0E0,4.6779448E-1,-5.1103365E-1,-0E0,-0E0,-6.373411E-1,-2.3253074E-1,2.5552988E-1,2.4060674E-2,-3.042798E-1,-1.6390536E-2,5.6834334E-1,-4.658194E-1,-0E0,5.3091305E-1,-0E0,-0E0,-2.9443952E-1,-8.242471E-1,-0E0,-2.7839926E-1,1.1677324E-1,-0E0,-5.399851E-1,9.027865E-2,-6.998168E-2,5.500217E-1,-0E0,-6.647494E-1,-0E0,-7.115188E-1,-0E0,-4.816051E-1,-0E0,-1.6210394E-2,3.1517544E-1,-1.7381157E-1,2.3471065E-1,-5.3676844E-1,-0E0,-3.4134507E-1,1.7447542E-1,-0E0,6.505393E-1,-6.7628366E-1,-0E0,-3.606443E-2,1.5536246E-1,-0E0,6.215326E-1,-0E0,-4.3586624E-1,-8.6755896E-1,-0E0,-0E0,-5.223289E-1,-0E0,3.299005E-1,-6.3865185E-1,-0E0,-0E0,2.2068232E-1,-2.3485444E-1,-0E0,-0E0,6.9374734E-1,-0E0,-8.4155583E-1,-0E0,-7.7451223E-1,-6.1743754E-1,-0E0,4.8420567E-2,-2.706005E-1,-0E0,3.575243E-1,-0E0,-4.1531208E-1,-0E0,4.6869037E-1,-0E0,-7.826508E-1,-5.0728655E-1,1.5215565E-1,4.300063E-1,-6.2050787E-3,7.198647E-1,-0E0,-0E0,-7.985839E-1,-4.250864E-1,4.2283814E-2,-0E0,-1.6789241E-1,3.5580733E-1,-0E0,-0E0,7.0071197E-1,-5.373383E-1,-0E0,-9.1318864E-1,-0E0,-0E0,-5.9814864E-1,5.707324E-1,-0E0,-3.4336433E-1,-0E0,-0E0,1.7321491E-1,-0E0,-2.1850982E-1,-0E0,3.7805018E-1,-4.4435966E-1,-0E0,-3.9391854E-1,-0E0,-0E0,-3.435385E-1,-0E0,1.0422257E-1,-3.4460124E-1,-0E0,-0E0,-9.069034E-2,-0E0,1.964745E-1,-0E0,-2.8619897E-1,-0E0,-1.627578E-1,3.2559863E-1,-0E0,-0E0,-5.0365293E-1,-0E0,-3.0201086E-1,1.5409684E-1,-0E0,3.3036777E-1,-0E0,-1.1908997E-1,-0E0,3.9189237E-1,-0E0,-4.79933E-1,-0E0,-0E0,-2.8443336E-1,1.4167847E-1,-0E0,2.72196E-1,-0E0,-0E0,3.9579794E-1,-3.156183E-1,-0E0,-0E0,-4.560051E-1,-3.310325E-1,-0E0,-0E0,3.47993E-1],"categories":[],"categories_nodes":[],"categories_segments":[],"categories_sizes":[],"default_left":[0,0,0,0,0,0,0,0,0,0,0,0,0,0,0,0,0,0,0,0,0,0,0,0,0,0,0,0,0,0,0,0,0,0,0,0,0,0,0,0,0,0,0,0,0,0,0,0,0,0,0,0,0,0,0,0,0,0,0,0,0,0,0,0,0,0,0,0,0,0,0,0,0,0,0,0,0,0,0,0,0,0,0,0,0,0,0,0,0,0,0,0,0,0,0,0,0,0,0,0,0,0,0,0,0,0,0,0,0,0,0,0,0,0,0,0,0,0,0,0,0,0,0,0,0,0,0,0,0,0,0,0,0,0,0,0,0,0,0,0,0,0,0,0,0,0,0,0,0,0,0,0,0,0,0,0,0,0,0,0,0,0,0,0,0,0,0,0,0,0,0,0,0,0,0,0,0,0,0,0,0,0,0,0,0,0,0,0,0,0,0,0,0,0,0],"id":6,"left_children":[1,3,5,7,9,11,13,15,17,19,-1,21,23,25,27,29,31,33,-1,-1,35,37,39,41,43,45,47,49,51,-1,53,55,57,59,-1,-1,61,63,65,67,69,71,73,75,77,79,-1,-1,81,83,-1,85,87,-1,89,91,93,95,-1,97,-1,99,-1,101,-1,103,105,107,109,111,-1,113,115,-1,117,119,121,123,125,-1,127,-1,129,131,-1,-1,133,-1,135,137,-1,-1,139,141,-1,-1,143,-1,145,-1,147,149,-1,151,153,155,157,-1,159,161,163,-1,165,167,169,171,173,175,-1,-1,177,179,181,-1,-1,183,-1,-1,185,187,-1,189,-1,-1,191,193,-1,-1,-1,-1,-1,-1,-1,-1,-1,-1,-1,-1,-1,-1,-1,-1,-1,-1,-1,-1,-1,-1,-1,-1,-1,-1,-1,-1,-1,-1,-1,-1,-1,-1,-1,-1,-1,-1,-1,-1,-1,-1,-1,-1,-1,-1,-1,-1,-1,-1,-1,-1,-1,-1,-1,-1,-1,-1,-1],"loss_changes":[7.427971E0,1.16039295E1,8.133636E0,7.60953E0,4.623789E0,1.1507076E1,1.069819E1,6.9156513E0,4.3864174E0,4.1798344E0,0E0,8.670665E0,1.7364872E1,6.947196E0,1.6848265E1,1.9412965E0,8.483355E0,4.435772E0,0E0,0E0,3.31143E0,1.1907122E1,4.48724E0,1.7894478E1,8.609797E0,3.7551312E0,2.6574874E0,3.3992386E0,3.2852492E0,0E0,3.4757028E0,5.7103914E-1,4.3623886E0,6.1244736E0,0E0,0E0,2.4382324E0,4.6403418E0,1.1144966E1,4.7794185E0,5.0392847E0,1.7554092E1,4.7424107E0,7.3325844E0,6.483328E-1,3.0708847E0,0E0,0E0,3.0470064E0,3.0484695E0,0E0,4.9138556E0,3.7962055E0,0E0,1.4674754E0,1.3332043E0,1.603948E0,4.4975605E0,0E0,4.406618E0,0E0,4.5957336E0,0E0,2.5063825E0,0E0,3.2351933E0,8.898491E0,2.9458346E0,6.834316E0,6.819707E0,0E0,1.2955939E1,1.0796329E1,0E0,4.496111E0,7.0610237E0,3.3357847E0,1.0693964E0,2.2322931E0,0E0,3.0701418E0,0E0,2.325801E0,3.1285172E0,0E0,0E0,1.9758844E0,0E0,6.8019404E0,1.2286301E0,0E0,0E0,2.1784487E0,2.8720558E0,0E0,0E0,4.7933826E0,0E0,3.176422E0,0E0,2.6633415E0,2.136094E0,0E0,7.0828384E-1,6.6297007E0,7.03836E-1,8.322739E0,0E0,3.221022E0,9.3859535E-1,7.5838995E0,0E0,7.9250164E0,7.343462E0,9.746555E-1,7.654051E0,1.7505178E0,3.9420033E0,0E0,0E0,7.5119667E0,1.4708865E0,1.9051173E0,0E0,0E0,2.9371128E0,0E0,0E0,2.7415218E0,2.413105E0,0E0,1.1239281E0,0E0,0E0,2.235798E0,4.1500607E0,0E0,0E0,0E0,0E0,0E0,0E0,0E0,0E0,0E0,0E0,0E0,0E0,0E0,0E0,0E0,0E0,0E0,0E0,0E0,0E0,0E0,0E0,0E0,0E0,0E0,0E0,0E0,0E0,0E0,0E0,0E0,0E0,0E0,0E0,0E0,0E0,0E0,0E0,0E0,0E0,0E0,0E0,0E0,0E0,0E0,0E0,0E0,0E0,0E0,0E0,0E0,0E0,0E0,0E0,0E0,0E0,0E0,0E0,0E0],"parents":[2147483647,0,0,1,1,2,2,3,3,4,4,5,5,6,6,7,7,8,8,9,9,11,11,12,12,13,13,14,14,15,15,16,16,17,17,20,20,21,21,22,22,23,23,24,24,25,25,26,26,27,27,28,28,30,30,31,31,32,32,33,33,36,36,37,37,38,38,39,39,40,40,41,41,42,42,43,43,44,44,45,45,48,48,49,49,51,51,52,52,54,54,55,55,56,56,57,57,59,59,61,61,63,63,65,65,66,66,67,67,68,68,69,69,71,71,72,72,74,74,75,75,76,76,77,77,78,78,80,80,82,82,83,83,86,86,88,88,89,89,92,92,93,93,96,96,98,98,100,100,101,101,103,103,104,104,105,105,106,106,108,108,109,109,110,110,112,112,113,113,114,114,115,115,116,116,117,117,120,120,121,121,122,122,125,125,128,128,129,129,131,131,134,134,135,135],"right_children":[2,4,6,8,10,12,14,16,18,20,-1,22,24,26,28,30,32,34,-1,-1,36,38,40,42,44,46,48,50,52,-1,54,56,58,60,-1,-1,62,64,66,68,70,72,74,76,78,80,-1,-1,82,84,-1,86,88,-1,90,92,94,96,-1,98,-1,100,-1,102,-1,104,106,108,110,112,-1,114,116,-1,118,120,122,124,126,-1,128,-1,130,132,-1,-1,134,-1,136,138,-1,-1,140,142,-1,-1,144,-1,146,-1,148,150,-1,152,154,156,158,-1,160,162,164,-1,166,168,170,172,174,176,-1,-1,178,180,182,-1,-1,184,-1,-1,186,188,-1,190,-1,-1,192,194,-1,-1,-1,-1,-1,-1,-1,-1,-1,-1,-1,-1,-1,-1,-1,-1,-1,-1,-1,-1,-1,-1,-1,-1,-1,-1,-1,-1,-1,-1,-1,-1,-1,-1,-1,-1,-1,-1,-1,-1,-1,-1,-1,-1,-1,-1,-1,-1,-1,-1,-1,-1,-1,-1,-1,-1,-1,-1,-1],"split_conditions":[-5.6640434E-1,-2.3412877E-1,8.394723E-1,4.9961892E-1,1.3243036E0,3.004E1,1.3944636E-1,-1.1990173E0,9.066747E7,-1.8297191E0,-0E0,8.7268627E-1,5.764E1,-3.6923513E-2,1.143552E0,2.98E1,5.212347E7,7.040393E-2,-0E0,-0E0,-1.755234E-1,2.59955E6,6.852E1,5.728194E-1,9.719915E-2,4.23823E-1,-4.095468E-2,8.168E1,-1.2456127E0,-0E0,2.19178E-1,-6.2749636E-1,1.3392533E0,1.2652606E0,-0E0,-0E0,7.65E1,1.1057383E0,2.982E1,1.142177E0,8.27E1,2.73846E-1,-1.1144121E-1,6.694E1,-2.5007567E-1,-1.3047751E0,-0E0,-0E0,-1.7102191E0,1.6436591E0,-0E0,1.2038997E0,4.839838E-1,-0E0,3.02E1,-1.2332923E0,5.1853544E-1,-7.62237E-1,-0E0,-6.3985705E-1,-0E0,2.7394464E0,-0E0,3.5371286E-1,-0E0,-1.0039647E0,3.85E1,-1.065714E0,6.9669995E0,-8.144237E-1,-0E0,3.03E1,4.04167E-1,-0E0,1.2964631E0,2.9626568E6,2.647698E-2,-9.8501605E-1,7.769819E-1,-0E0,8.808239E-1,-0E0,1.3950778E0,3.036E1,-0E0,-0E0,8.9270145E-1,-0E0,2.0273755E0,1.33842856E8,-0E0,-0E0,-1.2408233E0,5.5550876E0,-0E0,-0E0,2.98E1,-0E0,1.7887038E0,-0E0,1.7354986E-1,3.77E1,-0E0,-5.652337E-1,-3.9595157E-1,2.54717E-1,2.98E1,-0E0,-5.289372E-1,6.9135314E-1,1.5777428E0,-0E0,-2.1198268E-1,-6.61575E-1,-7.250393E-1,1.9228253E-1,-1.2760468E-1,3.8874682E-2,-0E0,-0E0,6.402087E-1,-5.526577E-1,-2.9739381E-3,-0E0,-1.6789241E-1,3.9447032E-2,-0E0,-0E0,2.982E1,2.0892629E-1,-0E0,-1.4257138E0,-0E0,-0E0,4.3468146E0,-9.997444E-1,-0E0,-3.4336433E-1,-0E0,-0E0,1.7321491E-1,-0E0,-2.1850982E-1,-0E0,3.7805018E-1,-4.4435966E-1,-0E0,-3.9391854E-1,-0E0,-0E0,-3.435385E-1,-0E0,1.0422257E-1,-3.4460124E-1,-0E0,-0E0,-9.069034E-2,-0E0,1.964745E-1,-0E0,-2.8619897E-1,-0E0,-1.627578E-1,3.2559863E-1,-0E0,-0E0,-5.0365293E-1,-0E0,-3.0201086E-1,1.5409684E-1,-0E0,3.3036777E-1,-0E0,-1.1908997E-1,-0E0,3.9189237E-1,-0E0,-4.79933E-1,-0E0,-0E0,-2.8443336E-1,1.4167847E-1,-0E0,2.72196E-1,-0E0,-0E0,3.9579794E-1,-3.156183E-1,-0E0,-0E0,-4.560051E-1,-3.310325E-1,-0E0,-0E0,3.47993E-1],"split_indices":[33,32,4,10,8,43,11,33,27,13,0,15,44,35,2,24,27,36,0,0,39,27,44,16,17,22,42,44,18,0,21,12,16,16,0,0,23,8,43,15,23,21,40,44,11,12,0,0,10,10,0,2,8,0,43,13,7,0,0,9,0,20,0,25,0,12,23,0,20,13,0,43,21,0,11,28,36,19,0,0,4,0,12,43,0,0,31,0,8,28,0,0,14,20,0,0,43,0,11,0,36,44,0,18,2,21,24,0,5,17,30,0,42,9,17,12,25,35,0,0,32,12,35,0,0,38,0,0,43,35,0,36,0,0,1,3,0,0,0,0,0,0,0,0,0,0,0,0,0,0,0,0,0,0,0,0,0,0,0,0,0,0,0,0,0,0,0,0,0,0,0,0,0,0,0,0,0,0,0,0,0,0,0,0,0,0,0,0,0,0,0,0,0,0,0],"split_type":[0,0,0,0,0,0,0,0,0,0,0,0,0,0,0,0,0,0,0,0,0,0,0,0,0,0,0,0,0,0,0,0,0,0,0,0,0,0,0,0,0,0,0,0,0,0,0,0,0,0,0,0,0,0,0,0,0,0,0,0,0,0,0,0,0,0,0,0,0,0,0,0,0,0,0,0,0,0,0,0,0,0,0,0,0,0,0,0,0,0,0,0,0,0,0,0,0,0,0,0,0,0,0,0,0,0,0,0,0,0,0,0,0,0,0,0,0,0,0,0,0,0,0,0,0,0,0,0,0,0,0,0,0,0,0,0,0,0,0,0,0,0,0,0,0,0,0,0,0,0,0,0,0,0,0,0,0,0,0,0,0,0,0,0,0,0,0,0,0,0,0,0,0,0,0,0,0,0,0,0,0,0,0,0,0,0,0,0,0,0,0,0,0,0,0],"sum_hessian":[1.7307059E3,3.5776505E2,1.3729408E3,2.6936096E2,8.840409E1,1.1499576E3,2.2298325E2,1.8914986E2,8.0211105E1,8.007823E1,8.325861E0,6.817747E2,4.6818286E2,8.6545746E1,1.364375E2,3.3368404E1,1.5578145E2,6.435764E1,1.5853459E1,2.7811987E0,7.7297035E1,5.3569257E2,1.4608215E2,3.1278427E2,1.553986E2,3.920228E1,4.7343468E1,5.479562E1,8.164188E1,5.0060816E0,2.8362322E1,8.975932E1,6.6022125E1,5.8612244E1,5.7454014E0,1.8346025E0,7.546243E1,3.3501392E1,5.0219116E2,9.85923E1,4.748986E1,2.5467406E2,5.8110203E1,1.1857011E2,3.68285E1,3.683674E1,2.3655405E0,1.4789261E1,3.2554207E1,5.1668976E1,3.1266434E0,3.29521E1,4.868978E1,4.619095E0,2.3743227E1,3.744792E1,5.23114E1,6.1972946E1,4.0491786E0,4.8197025E1,1.0415216E1,6.521846E1,1.0243974E1,2.7249691E1,6.2517004E0,6.0309063E1,4.418821E2,2.6426168E1,7.216613E1,3.2249554E1,1.5240307E1,1.134066E2,1.4126746E2,2.7256396E0,5.5384563E1,7.189809E1,4.667202E1,1.1359081E1,2.546942E1,2.2088187E0,3.4627922E1,2.0614965E0,3.049271E1,5.0617085E1,1.0518918E0,6.108891E0,2.6843208E1,8.354927E0,4.0334854E1,2.0360878E1,3.3823504E0,4.420471E0,3.302745E1,3.3051594E1,1.9259806E1,1.3947783E1,4.802516E1,1.2180123E1,3.6016903E1,2.6314452E0,6.2587013E1,2.2864191E1,4.3855E0,1.7221983E1,4.308708E1,2.903153E1,4.128506E2,5.3280797E0,2.109809E1,2.351008E1,4.865605E1,6.3381815E0,2.5911371E1,1.00017944E2,1.3388656E1,8.1016E1,6.025146E1,5.3771652E1,1.6129111E0,9.472498E0,6.2425587E1,1.7425129E1,2.9246891E1,2.9399555E0,8.4191265E0,2.1890991E1,3.5784273E0,1.2882788E0,3.333964E1,2.7866072E1,2.6266377E0,4.936468E1,1.2524045E0,1.0266463E0,2.5816563E1,3.386655E1,6.4683037E0,1.9104877E1,1.2559998E0,3.455711E0,2.9571741E1,1.0195052E1,2.2856543E1,1.7217727E0,4.630339E1,3.4449276E1,1.5676289E0,6.1580875E1,1.0061369E0,1.159937E0,2.1704254E1,1.5269036E0,1.5695079E1,1.8971066E1,2.4116013E1,9.412877E0,1.9618654E1,3.6508724E1,3.7634186E2,1.5432038E0,1.9554884E1,1.5819953E1,7.6901264E0,4.062671E1,8.029342E0,3.9091303E0,2.2002241E1,1.397913E1,8.603882E1,1.2302062E1,1.0865937E0,4.8892776E1,3.2123222E1,2.8662846E1,3.1588617E1,4.9121376E1,4.650275E0,4.8622406E1,1.3803183E1,4.1877866E0,1.3237342E1,2.247469E1,6.772202E0,1.789017E1,4.000822E0,4.506575E0,2.8833067E1,2.4747347E1,3.1187255E0,1.0184332E0,4.834625E1,2.4740128E1,1.0764343E0,4.309795E0,2.9556755E1],"tree_param":{"num_deleted":"0","num_feature":"45","num_nodes":"195","size_leaf_vector":"1"}},{"base_weights":[-1.40136285E-2,3.4869317E-2,-9.1397196E-2,-1.8384734E-2,2.8158846E-1,-3.0254227E-1,-2.0979444E-2,2.5249546E-2,-4.0674412E-1,5.0670445E-1,-0E0,-5.2299154E-1,-0E0,1.7537003E-3,-4.249448E-1,1.6220781E-1,-4.5423657E-2,-5.400876E-1,-0E0,-1.154921E-2,6.9153994E-1,3.4602708E-1,-1.058135E-1,-6.515446E-1,-0E0,2.776777E-2,-0E0,-6.3787386E-2,2.2053623E-1,-6.127986E-1,-0E0,3.6308953E-1,-0E0,-5.0473493E-1,-0E0,-0E0,-6.5313816E-1,-7.172929E-2,-0E0,7.709898E-1,-0E0,4.670409E-1,-0E0,-0E0,-2.8766847E-1,-7.255187E-1,-0E0,-0E0,1.5825321E-1,-0E0,-1.8947046E-1,4.5044778E-4,-2.6243663E-1,-1.14027746E-1,3.8673627E-1,-0E0,-7.662354E-1,-0E0,5.0820273E-1,-1.6997814E-1,1.3354135E-1,-0E0,-7.2855604E-1,2.665272E-1,-1.7531578E-1,-0E0,-7.9346377E-1,8.622655E-1,-0E0,5.365197E-1,-0E0,-0E0,6.710183E-2,-4.6987677E-1,-0E0,-8.1669164E-1,-0E0,2.9474172E-1,-0E0,-0E0,-3.974311E-1,-5.310436E-2,3.3771375E-1,-5.287515E-1,-0E0,-0E0,-5.8066005E-1,6.543476E-1,-0E0,-8.226533E-1,-0E0,-0E0,-6.0137827E-2,-0E0,5.842601E-1,-0E0,-4.050016E-1,3.1399894E-1,-0E0,-0E0,-8.9330286E-1,3.9095128E-1,-0E0,-3.9725596E-1,-0E0,-0E0,-9.065068E-1,-0E0,9.0312946E-1,6.392741E-1,-0E0,-9.5870334E-1,-0E0,-0E0,-8.708759E-1,-0E0,4.296929E-1,-0E0,-2.4703212E-1,2.4111416E-2,-4.1491708E-1,6.5965134E-1,-0E0,-0E0,-6.908637E-1,-1.5067673E-1,8.305791E-3,-0E0,5.1981885E-2,-3.1328076E-1,-0E0,-0E0,8.1516194E-1,4.1462064E-1,-4.327011E-1,-4.2802566E-1,-0E0,-1.10951215E-1,-0E0,3.3812657E-1,-0E0,1.806411E-2,-0E0,-0E0,-2.8179935E-1,-0E0,2.614125E-1,-0E0,-7.072411E-2,-4.9909505E-1,-0E0,-0E0,2.373904E-1,3.4577067E-3,-3.895363E-2,-2.5787506E-1,-0E0,4.7177922E-2,-5.0382324E-2,-0E0,-4.7492737E-1,4.7584808E-1,-0E0,3.5149124E-1,-0E0,-0E0,-5.04026E-1,-4.519381E-1,-0E0,2.6503968E-1,-0E0,6.9531746E-2,-0E0,-0E0,-3.4792992E-1,3.582031E-1,-0E0,-2.5316263E-2,-0E0,-0E0,-3.743703E-1,7.720538E-2,-0E0,1.5139273E-1,-0E0,4.7740558E-1,-0E0,3.3464447E-1,-0E0,-0E0,-2.877246E-1],"categories":[],"categories_nodes":[],"categories_segments":[],"categories_sizes":[],"default_left":[0,0,0,0,0,0,0,0,0,0,0,0,0,0,0,0,0,0,0,0,0,0,0,0,0,0,0,0,0,0,0,0,0,0,0,0,0,0,0,0,0,0,0,0,0,0,0,0,0,0,0,0,0,0,0,0,0,0,0,0,0,0,0,0,0,0,0,0,0,0,0,0,0,0,0,0,0,0,0,0,0,0,0,0,0,0,0,0,0,0,0,0,0,0,0,0,0,0,0,0,0,0,0,0,0,0,0,0,0,0,0,0,0,0,0,0,0,0,0,0,0,0,0,0,0,0,0,0,0,0,0,0,0,0,0,0,0,0,0,0,0,0,0,0,0,0,0,0,0,0,0,0,0,0,0,0,0,0,0,0,0,0,0,0,0,0,0,0,0,0,0,0,0,0,0,0,0,0,0,0,0,0,0,0,0,0,0,0,0,0,0],"id":7,"left_children":[1,3,5,7,9,11,13,15,17,19,21,23,25,27,29,31,33,35,-1,37,39,41,43,45,-1,47,49,51,53,55,-1,57,59,61,63,-1,65,-1,-1,67,-1,69,-1,71,73,75,-1,-1,77,-1,79,81,83,85,87,-1,89,91,93,95,97,-1,99,101,103,-1,105,107,-1,109,-1,-1,-1,111,-1,113,-1,115,-1,-1,117,119,121,123,125,127,129,131,133,135,-1,-1,137,-1,139,141,143,145,147,-1,149,151,153,155,157,-1,159,-1,161,163,-1,165,-1,-1,167,-1,169,-1,-1,171,173,175,177,-1,179,-1,181,-1,183,-1,-1,-1,185,187,189,-1,-1,-1,-1,-1,-1,-1,-1,-1,-1,-1,-1,-1,-1,-1,-1,-1,-1,-1,-1,-1,-1,-1,-1,-1,-1,-1,-1,-1,-1,-1,-1,-1,-1,-1,-1,-1,-1,-1,-1,-1,-1,-1,-1,-1,-1,-1,-1,-1,-1,-1,-1,-1,-1,-1,-1],"loss_changes":[6.80985E0,1.4889996E1,7.4393835E0,1.6268347E1,8.179867E0,1.081119E1,9.5123E0,7.3468437E0,9.235573E0,1.5743509E1,6.0236564E0,7.1484127E0,2.984198E-2,9.057259E0,6.939863E0,6.9455957E0,1.0655961E1,4.483164E0,0E0,2.0356882E-1,8.432739E0,3.6780467E0,3.4300394E0,5.3198547E0,0E0,8.6617535E-1,5.0620866E-1,7.300179E0,1.1410305E1,5.502823E0,0E0,7.2870893E0,3.489133E0,8.68227E0,1.5927214E1,0E0,7.1099205E0,0E0,0E0,7.9575653E0,0E0,2.3166475E0,0E0,2.0546989E-1,5.0007935E0,5.2705154E0,0E0,0E0,1.8565454E0,0E0,1.4110817E0,7.1914086E0,7.394356E0,5.227908E0,1.373275E1,0E0,1.4865932E0,4.8368014E-2,5.0011024E0,5.0573726E0,4.651002E0,0E0,3.7225018E0,5.171337E0,7.130102E0,0E0,7.693531E0,4.237549E0,0E0,3.2037115E0,0E0,0E0,0E0,1.0798595E1,0E0,3.6178322E0,0E0,2.2404678E0,0E0,0E0,8.901473E-1,9.000878E0,1.022629E1,6.8872585E0,1.0515631E0,3.392743E-2,7.565365E-1,7.5172005E0,9.020172E0,2.0352478E0,0E0,0E0,4.785116E-1,0E0,3.6089554E0,1.7035259E-2,2.3309436E0,7.694146E0,5.5528957E-1,0E0,5.042555E0,6.2916346E0,1.0069141E-1,7.2171183E0,1.0619695E0,0E0,4.761322E0,0E0,4.1719475E0,3.138771E0,0E0,1.439333E0,0E0,0E0,3.8258286E0,0E0,2.4472032E0,0E0,0E0,1.7828331E0,4.2029324E0,3.3202171E0,4.0989835E-2,0E0,3.1904335E0,0E0,1.2350874E0,0E0,9.9191594E-1,0E0,0E0,0E0,7.5463905E0,5.4909554E0,2.7962942E0,0E0,0E0,0E0,0E0,0E0,0E0,0E0,0E0,0E0,0E0,0E0,0E0,0E0,0E0,0E0,0E0,0E0,0E0,0E0,0E0,0E0,0E0,0E0,0E0,0E0,0E0,0E0,0E0,0E0,0E0,0E0,0E0,0E0,0E0,0E0,0E0,0E0,0E0,0E0,0E0,0E0,0E0,0E0,0E0,0E0,0E0,0E0,0E0,0E0,0E0,0E0,0E0,0E0,0E0,0E0,0E0],"parents":[2147483647,0,0,1,1,2,2,3,3,4,4,5,5,6,6,7,7,8,8,9,9,10,10,11,11,12,12,13,13,14,14,15,15,16,16,17,17,19,19,20,20,21,21,22,22,23,23,25,25,26,26,27,27,28,28,29,29,31,31,32,32,33,33,34,34,36,36,39,39,41,41,43,43,44,44,45,45,48,48,50,50,51,51,52,52,53,53,54,54,56,56,57,57,58,58,59,59,60,60,62,62,63,63,64,64,66,66,67,67,69,69,73,73,75,75,77,77,80,80,81,81,82,82,83,83,84,84,85,85,86,86,87,87,88,88,89,89,92,92,94,94,95,95,96,96,97,97,98,98,100,100,101,101,102,102,103,103,104,104,106,106,108,108,109,109,111,111,114,114,116,116,119,119,120,120,121,121,122,122,124,124,126,126,128,128,132,132,133,133,134,134],"right_children":[2,4,6,8,10,12,14,16,18,20,22,24,26,28,30,32,34,36,-1,38,40,42,44,46,-1,48,50,52,54,56,-1,58,60,62,64,-1,66,-1,-1,68,-1,70,-1,72,74,76,-1,-1,78,-1,80,82,84,86,88,-1,90,92,94,96,98,-1,100,102,104,-1,106,108,-1,110,-1,-1,-1,112,-1,114,-1,116,-1,-1,118,120,122,124,126,128,130,132,134,136,-1,-1,138,-1,140,142,144,146,148,-1,150,152,154,156,158,-1,160,-1,162,164,-1,166,-1,-1,168,-1,170,-1,-1,172,174,176,178,-1,180,-1,182,-1,184,-1,-1,-1,186,188,190,-1,-1,-1,-1,-1,-1,-1,-1,-1,-1,-1,-1,-1,-1,-1,-1,-1,-1,-1,-1,-1,-1,-1,-1,-1,-1,-1,-1,-1,-1,-1,-1,-1,-1,-1,-1,-1,-1,-1,-1,-1,-1,-1,-1,-1,-1,-1,-1,-1,-1,-1,-1,-1,-1,-1,-1],"split_conditions":[3.12977E-1,2.83668E-1,3.61607E-1,1.2454426E0,2.97189E-1,1.4307693E1,1.3302995E0,-5.151982E-1,1.3571355E0,4.06838E6,-4.7067088E-1,6.610293E-1,3.454538E-1,3.7782788E-1,8.006E1,-2.6057318E-1,-1.4309697E0,-1.7739726E0,-0E0,1.875482E0,3.028E1,7.0836955E-1,3.71238E6,1.5980614E0,-0E0,-9.082156E-1,-5.992704E-1,-5.118068E-1,4.928E1,-1.7137812E0,-0E0,-9.913338E-1,1.699585E-1,4.13446E6,-5.8211625E-1,-0E0,1.9382E-1,-7.172929E-2,-0E0,1.4285821E0,-0E0,-9.468123E-2,-0E0,-6.7091167E-1,8.893466E-1,8.38E1,-0E0,-0E0,8.25905E-1,-0E0,-6.8687403E-1,-5.0526005E-1,-2.0593892E-1,3.85E1,7.2186613E-1,-0E0,3.026E1,-5.485642E-1,2.98E1,-3.7501518E-2,3.1807978E-2,-0E0,4.324E1,-4.8616144E-1,2.566893E-2,-0E0,-1.9649698E0,-1.1350706E0,-0E0,1.6446991E0,-0E0,-0E0,6.710183E-2,6.87E1,-0E0,-1.513205E0,-0E0,-8.6524256E-2,-0E0,-0E0,-1.7729514E0,-5.563439E-1,5.4887164E-1,-1.1709664E0,4.3177055E6,-4.9295485E-1,1.1245745E-1,-3.0861947E-1,-1.0838707E-1,7.234173E7,-0E0,-0E0,5.431356E-2,-0E0,3.474328E-2,3.0682352E-1,2.996E1,-3.1198336E-2,-1.6978515E0,-0E0,5.5971956E-1,4.19872E-1,2.9513065E-2,1.14818E8,4.21918E-1,-0E0,2.62492E6,-0E0,1.383509E0,3.91753E-1,-0E0,2.98E1,-0E0,-0E0,1.4321266E0,-0E0,3.3986843E-1,-0E0,-2.4703212E-1,1.1643612E-1,-6.7821854E-1,2.267679E0,8.615668E7,-0E0,-2.3293975E-1,-1.5067673E-1,9.7262526E-1,-0E0,7.8458E-1,-3.1328076E-1,-0E0,-0E0,2.4114579E-1,-9.003545E-1,3.0425245E6,-4.2802566E-1,-0E0,-1.10951215E-1,-0E0,3.3812657E-1,-0E0,1.806411E-2,-0E0,-0E0,-2.8179935E-1,-0E0,2.614125E-1,-0E0,-7.072411E-2,-4.9909505E-1,-0E0,-0E0,2.373904E-1,3.4577067E-3,-3.895363E-2,-2.5787506E-1,-0E0,4.7177922E-2,-5.0382324E-2,-0E0,-4.7492737E-1,4.7584808E-1,-0E0,3.5149124E-1,-0E0,-0E0,-5.04026E-1,-4.519381E-1,-0E0,2.6503968E-1,-0E0,6.9531746E-2,-0E0,-0E0,-3.4792992E-1,3.582031E-1,-0E0,-2.5316263E-2,-0E0,-0E0,-3.743703E-1,7.720538E-2,-0E0,1.5139273E-1,-0E0,4.7740558E-1,-0E0,3.3464447E-1,-0E0,-0E0,-2.877246E-1],"split_indices":[21,21,21,9,21,20,12,10,10,26,6,33,3,8,44,9,15,2,0,13,43,4,26,13,0,16,34,13,44,3,0,31,9,26,31,0,21,0,0,2,0,13,0,16,9,23,0,0,29,0,38,6,34,23,14,0,43,11,24,38,39,0,44,17,39,0,11,1,0,3,0,0,0,23,0,17,0,42,0,0,32,11,30,1,28,34,35,19,19,28,0,0,41,0,35,34,43,42,31,0,41,22,41,26,22,0,26,0,10,22,0,24,0,0,15,0,34,0,0,16,16,16,27,0,42,0,10,0,32,0,0,0,1,18,28,0,0,0,0,0,0,0,0,0,0,0,0,0,0,0,0,0,0,0,0,0,0,0,0,0,0,0,0,0,0,0,0,0,0,0,0,0,0,0,0,0,0,0,0,0,0,0,0,0,0,0,0,0,0,0,0],"split_type":[0,0,0,0,0,0,0,0,0,0,0,0,0,0,0,0,0,0,0,0,0,0,0,0,0,0,0,0,0,0,0,0,0,0,0,0,0,0,0,0,0,0,0,0,0,0,0,0,0,0,0,0,0,0,0,0,0,0,0,0,0,0,0,0,0,0,0,0,0,0,0,0,0,0,0,0,0,0,0,0,0,0,0,0,0,0,0,0,0,0,0,0,0,0,0,0,0,0,0,0,0,0,0,0,0,0,0,0,0,0,0,0,0,0,0,0,0,0,0,0,0,0,0,0,0,0,0,0,0,0,0,0,0,0,0,0,0,0,0,0,0,0,0,0,0,0,0,0,0,0,0,0,0,0,0,0,0,0,0,0,0,0,0,0,0,0,0,0,0,0,0,0,0,0,0,0,0,0,0,0,0,0,0,0,0,0,0,0,0,0,0],"sum_hessian":[1.6494467E3,9.3192944E2,7.175173E2,7.337106E2,1.9821887E2,1.4332321E2,5.741941E2,6.3707324E2,9.663732E1,9.2564835E1,1.0565404E2,8.699684E1,5.632637E1,5.2086334E2,5.33307E1,2.6468237E2,3.7239084E2,8.615196E1,1.0485356E1,1.0293531E1,8.22713E1,4.3707954E1,6.1946083E1,7.263021E1,1.4366634E1,3.7964405E1,1.8361969E1,3.6602762E2,1.5483574E2,4.374234E1,9.58836E0,1.0491834E2,1.5976404E2,4.4111214E1,3.2827963E2,1.6966986E1,6.9184975E1,8.741522E0,1.5520097E0,8.023096E1,2.0403476E0,4.052097E1,3.1869843E0,1.2754471E1,4.9191612E1,6.8538055E1,4.092157E0,2.925479E0,3.5038925E1,4.999763E0,1.33622055E1,2.3910463E2,1.26923E2,3.149636E1,1.2333938E2,6.6581693E0,3.708417E1,2.3509367E1,8.140897E1,5.475029E1,1.0501375E2,6.966807E0,3.7144405E1,1.4297754E2,1.853021E2,1.1252265E1,5.7932713E1,7.4698875E1,5.5320797E0,3.857473E1,1.9462405E0,2.6376245E0,1.0116846E1,4.062607E1,8.565545E0,6.183575E1,6.702304E0,3.0946335E1,4.0925894E0,1.9624143E0,1.1399791E1,1.8128925E2,5.781538E1,5.715853E1,6.9764465E1,1.5486508E1,1.6009851E1,7.467626E1,4.8663116E1,3.4270885E1,2.8132849E0,1.0874007E1,1.2635361E1,5.344895E0,7.606408E1,1.4882117E1,3.986817E1,6.556178E1,3.945197E1,8.019792E0,2.9124613E1,9.98906E1,4.3086945E1,8.067564E1,1.0462645E2,4.358158E0,5.3574554E1,1.4768645E0,7.322201E1,3.47916E1,3.7831297E0,2.0946676E1,1.9679392E1,2.7741113E0,5.9061638E1,4.642456E0,2.6303879E1,1.1945088E0,1.0205282E1,1.2719496E2,5.4094288E1,3.8109543E1,1.9705837E1,9.553605E0,4.7604927E1,1.0236051E1,5.9528416E1,3.6693223E0,1.1817186E1,1.4782563E1,1.2272886E0,1.5507747E1,5.9168518E1,2.3258978E1,2.5404139E1,3.2668705E1,1.6021812E0,9.442981E0,3.1923795E0,6.1321476E1,1.4742605E1,1.1680331E1,3.2017858E0,1.3671325E1,2.6196846E1,1.6760443E1,4.880134E1,1.37814E1,2.5670568E1,2.6835299E1,2.2893155E0,9.145034E0,9.074557E1,2.8268326E1,1.481862E1,7.1040504E1,9.635131E0,5.2688118E1,5.193833E1,2.219355E0,5.1355198E1,6.702195E1,6.200058E0,3.326361E1,1.527989E0,1.6737219E0,1.9272955E1,5.654107E1,2.5205708E0,2.445759E1,1.8462898E0,9.064445E1,3.6550514E1,2.8023363E1,2.6070925E1,3.675805E1,1.351497E0,1.4475496E1,5.230341E0,3.7638516E0,4.3841076E1,4.8718975E1,1.0809441E1,9.908693E0,1.9084933E0,4.8687134E1,1.0481383E1,1.9688889E1,3.570089E0,4.04235E0,2.136179E1],"tree_param":{"num_deleted":"0","num_feature":"45","num_nodes":"191","size_leaf_vector":"1"}},{"base_weights":[-2.0359995E-2,-7.183962E-2,2.7110532E-2,-1.7959006E-1,-0E0,1.5637796E-1,-9.4862385E-3,-3.7946185E-1,-0E0,4.7925975E-2,-1.5543748E-1,-1.3598353E-1,2.7699775E-1,1.1284214E-2,-3.548624E-1,-0E0,-5.014436E-1,1.2284806E-1,-6.431257E-2,1.2262325E-1,-2.4580726E-1,-2.9413357E-1,2.8354172E-2,-3.810814E-1,-0E0,3.787806E-1,-3.1036565E-2,3.0932403E-1,-2.0877402E-2,-0E0,-5.489279E-1,-2.4199986E-3,1.1099061E-2,-5.748157E-1,-0E0,-0E0,3.836516E-1,-2.1601242E-1,-0E0,2.6710778E-1,-0E0,-3.6886433E-1,-0E0,-4.0387338E-1,-0E0,-0E0,1.6765763E-1,-0E0,-3.242121E-1,4.7213662E-1,-0E0,-0E0,-3.0455723E-1,5.952862E-1,-0E0,8.306769E-2,-1.950762E-1,-0E0,-7.3608094E-1,-0E0,-6.1904825E-2,2.889653E-1,-0E0,-0E0,-7.558612E-1,-0E0,4.7278532E-1,-0E0,-4.3835577E-1,8.571043E-2,-0E0,3.9800778E-1,-0E0,-1.7979448E-1,3.8160175E-2,-4.6186063E-1,-0E0,-0E0,-5.4774696E-1,-0E0,4.4391148E-2,3.2451957E-1,-0E0,-0E0,5.6963843E-1,-0E0,-1.8987627E-1,-0E0,-5.076712E-1,-0E0,7.9502827E-1,-3.2586887E-2,-0E0,-2.4492544E-1,3.438223E-1,-0E0,-5.188184E-1,-0E0,-8.240484E-1,2.4265026E-1,-0E0,-8.7954354E-1,-0E0,6.149383E-1,-0E0,-6.3815564E-1,-0E0,2.693711E-1,-0E0,-0E0,-9.605063E-2,5.1385444E-1,-0E0,-2.0468502E-1,-0E0,-0E0,-3.8847208E-1,3.1728113E-1,-0E0,-0E0,-5.25677E-1,-6.090192E-1,-0E0,2.0379215E-1,-0E0,-0E0,4.7555146E-1,6.4873344E-1,-0E0,-0E0,-3.3968282E-1,-0E0,-2.8082925E-1,8.599887E-1,-0E0,-2.6796263E-1,-0E0,-4.8032713E-1,9.7561434E-2,-0E0,4.227015E-1,-1.8464383E-1,2.096524E-1,-6.1171684E-2,-1.0719142E0,-0E0,-8.821204E-1,-4.512838E-1,-0E0,-0E0,3.1048778E-1,-3.8019273E-1,-0E0,1.7611602E-1,-0E0,-0E0,-8.920186E-2,2.9828423E-1,-0E0,-2.5208518E-1,-0E0,9.899059E-3,-0E0,-0E0,-2.8611094E-1,-0E0,2.0614709E-1,-0E0,-7.298403E-2,-0E0,-2.752141E-1,-3.2509515E-1,-0E0,-0E0,1.2064697E-1,2.8722012E-1,-0E0,-0E0,3.8337097E-1,-1.8963869E-1,-0E0,5.0706583E-1,-0E0,-0E0,-1.3995351E-1,-0E0,-3.3337593E-1,8.448058E-2,-0E0,2.416658E-1,-0E0,-0E0,-1.8861476E-1,-0E0,1.9280456E-1,-2.5068775E-1,-0E0,-0E0,-5.506377E-1,-0E0,-4.6304807E-1],"categories":[],"categories_nodes":[],"categories_segments":[],"categories_sizes":[],"default_left":[0,0,0,0,0,0,0,0,0,0,0,0,0,0,0,0,0,0,0,0,0,0,0,0,0,0,0,0,0,0,0,0,0,0,0,0,0,0,0,0,0,0,0,0,0,0,0,0,0,0,0,0,0,0,0,0,0,0,0,0,0,0,0,0,0,0,0,0,0,0,0,0,0,0,0,0,0,0,0,0,0,0,0,0,0,0,0,0,0,0,0,0,0,0,0,0,0,0,0,0,0,0,0,0,0,0,0,0,0,0,0,0,0,0,0,0,0,0,0,0,0,0,0,0,0,0,0,0,0,0,0,0,0,0,0,0,0,0,0,0,0,0,0,0,0,0,0,0,0,0,0,0,0,0,0,0,0,0,0,0,0,0,0,0,0,0,0,0,0,0,0,0,0,0,0,0,0,0,0,0,0,0,0,0,0,0,0,0,0,0,0,0,0,0,0,0,0,0,0,0,0],"id":8,"left_children":[1,3,5,7,9,11,13,15,17,19,21,23,25,27,29,31,33,35,37,39,41,43,45,47,-1,49,51,53,55,-1,57,59,61,63,-1,-1,65,67,69,71,73,75,-1,77,79,-1,81,-1,-1,83,85,-1,87,89,91,93,95,-1,97,-1,-1,99,-1,-1,101,-1,103,-1,105,107,109,111,113,115,117,119,-1,-1,121,-1,123,125,-1,-1,127,-1,129,-1,131,-1,133,135,-1,137,139,141,143,-1,145,-1,-1,147,-1,149,-1,151,-1,153,-1,-1,155,157,-1,159,-1,161,163,165,167,-1,169,171,-1,173,-1,-1,175,177,-1,-1,179,-1,-1,181,-1,183,-1,185,187,-1,189,191,193,195,197,-1,199,-1,-1,-1,-1,-1,-1,-1,-1,-1,-1,-1,-1,-1,-1,-1,-1,-1,-1,-1,-1,-1,-1,-1,-1,-1,-1,-1,-1,-1,-1,-1,-1,-1,-1,-1,-1,-1,-1,-1,-1,-1,-1,-1,-1,-1,-1,-1,-1,-1,-1,-1,-1,-1,-1],"loss_changes":[4.278955E0,5.390756E0,4.8520403E0,9.777656E0,4.831132E0,9.128119E0,7.008106E0,6.4117775E0,1.1638125E0,7.301763E0,6.8210344E0,3.7063882E0,9.093088E0,7.1331644E0,7.955569E0,2.9967276E-3,5.526726E0,3.3858445E0,2.7718954E0,7.784376E0,3.425644E0,6.41757E0,9.773124E-1,3.4904008E0,0E0,9.302547E0,1.4895304E0,